/*
 * policy_weights.h
 * ----------------
 * Generated by export_weights.py from ../results/dagger_policy.pt
 * Architecture: 20 -> 64 -> 64 -> 4, no LayerNorm
 * Total parameters: 5764
 */

#ifndef POLICY_WEIGHTS_H
#define POLICY_WEIGHTS_H


static const float W1[1280] = {
    -1.013848e-01f, +3.842778e-01f, +1.501181e-01f, +1.084100e-01f, +3.755991e-01f, -5.092986e-02f, -4.631085e-01f, -2.787382e-01f,
    -4.081402e-01f, -1.358077e-02f, +3.235365e-03f, +2.155784e-01f, +2.114753e-03f, +2.930515e-01f, +5.669424e-01f, -9.006607e-02f,
    -3.640839e-01f, -2.122646e-01f, -2.837639e-01f, +1.166789e-01f, +1.122218e-02f, -3.979382e-01f, +1.840186e-01f, +1.978632e-01f,
    -4.166538e-01f, -2.787196e-01f, +7.130532e-01f, -1.009156e-01f, +2.745856e-01f, +2.757765e-01f, +1.368993e-01f, -2.093743e-01f,
    +2.517277e-01f, -4.072200e-01f, -2.430321e-01f, -2.228585e-01f, +1.136726e-01f, -1.421612e-01f, -1.822637e-01f, -9.058571e-02f,
    -5.676804e-02f, -1.141707e-01f, +1.689947e-01f, -2.627083e-02f, -7.819904e-02f, +7.571017e-01f, +3.405991e-01f, -3.920021e-02f,
    +2.575223e-01f, -2.314845e-01f, -1.625659e-01f, -6.973056e-02f, -7.838514e-01f, +6.074713e-03f, +1.353494e+00f, +3.243485e-01f,
    +1.623550e-02f, -2.144179e-01f, -6.539872e-02f, +2.427509e-01f, -1.139508e-02f, +8.561867e-02f, +1.177480e-01f, -8.188858e-02f,
    -2.722248e-01f, -7.513316e-01f, +6.185893e-02f, +2.183874e-01f, -9.742969e-02f, +3.063556e-03f, +7.309635e-02f, +8.660258e-02f,
    -1.155156e-01f, -1.833384e-01f, -1.453787e+00f, -3.853971e-01f, -1.026413e-01f, +1.316251e-01f, +1.820560e-01f, -2.067995e-01f,
    +9.248910e-02f, +3.131816e-02f, -2.199058e-01f, +7.310760e-02f, +1.553755e-01f, +6.863831e-01f, -2.214156e-01f, -1.606637e-01f,
    -3.070202e-01f, -2.236759e-01f, -1.776602e-01f, -9.393470e-01f, +9.576595e-01f, +2.761605e-01f, +1.190107e+00f, -1.706666e-01f,
    -3.014179e-01f, -1.782185e-01f, +1.018870e-01f, +3.978658e-02f, -4.535865e-01f, +2.612560e-01f, -1.095391e-01f, -4.471814e-01f,
    +1.095879e-01f, +6.226948e-02f, +1.333968e-01f, -3.803959e-01f, +2.611423e-01f, +1.334445e-04f, -1.489051e-02f, -2.450067e-01f,
    -9.220381e-01f, +4.519048e-01f, -3.231746e-01f, +3.297792e-01f, -1.753918e-01f, +2.233034e-01f, -2.667210e-01f, -4.695348e-01f,
    +3.289313e-01f, +2.303782e-01f, -4.884433e-03f, +2.915077e-01f, -1.173275e-01f, -9.320252e-01f, -4.684173e-01f, +4.785817e-01f,
    -9.809507e-02f, -3.587668e-02f, -5.458103e-02f, -7.721105e-03f, +4.892883e-01f, -7.933246e-03f, -8.008071e-01f, +8.813749e-04f,
    -3.033656e-01f, +7.915448e-03f, -2.109761e-02f, +1.391873e-01f, +6.307534e-02f, +1.230224e-01f, +9.164079e-02f, -4.007116e-01f,
    +6.189165e-02f, -3.110373e-02f, -2.765363e-01f, -3.206159e-01f, +1.065159e-01f, -8.476667e-02f, +3.830501e-02f, +8.487672e-02f,
    -4.548278e-02f, +1.525045e-01f, +4.165065e-01f, +2.373209e-01f, -2.322834e-01f, -1.171916e-01f, -3.565990e-01f, -2.779259e-01f,
    +2.874132e-01f, -7.342460e-01f, -7.586683e-02f, +2.339995e-01f, -3.179944e-01f, -5.296827e-01f, +2.773325e-01f, +1.069494e-02f,
    -1.218470e-01f, +4.179068e-02f, +1.091181e-01f, +5.669275e-01f, -2.946854e-01f, -5.731645e-01f, -1.601018e+00f, +9.585698e-03f,
    -9.165101e-02f, -4.091854e-02f, -3.024931e-01f, -3.185554e-01f, -9.941170e-02f, -5.845534e-01f, +2.878040e-01f, +4.605353e-01f,
    -1.940534e-01f, +4.372516e-01f, -1.695304e-01f, +2.929616e-01f, -3.908590e-01f, +5.879258e-02f, +8.280604e-02f, -4.612996e-02f,
    +5.385818e-01f, -7.249575e-01f, -7.361405e-01f, -2.656081e-01f, -3.465267e-01f, -8.069138e-02f, -2.967975e-01f, -2.861528e-02f,
    -5.812917e-01f, -1.633629e-01f, -2.812982e-01f, -3.680376e-01f, -1.565904e-01f, +4.638587e-01f, +1.503540e-01f, -7.396690e-02f,
    +9.174865e-02f, +5.901797e-02f, -5.688689e-02f, -1.932446e-01f, -4.651788e-01f, +3.903968e-02f, -1.553525e-01f, +7.276086e-03f,
    +1.595200e-01f, -9.434550e-02f, -2.792400e-02f, +2.221024e-01f, +2.127546e-01f, -5.977687e-01f, -5.570388e-03f, +8.501980e-03f,
    -2.473975e-01f, -1.042198e-01f, +4.258739e-01f, +1.789387e-01f, +1.797879e-01f, +1.384441e-01f, +2.072305e-01f, +5.398170e-01f,
    +8.380402e-02f, -6.504079e-01f, -6.029801e-01f, -5.351369e-01f, -9.904769e-02f, -9.598319e-02f, +3.095566e-02f, -3.992917e-02f,
    +3.455488e-02f, -4.048190e-01f, +5.136025e-02f, -5.174173e-01f, -2.787474e-01f, -1.671047e-01f, +4.999047e-01f, -7.514244e-01f,
    +6.217822e-01f, -3.498292e-02f, -7.354139e-02f, +1.350597e-01f, -5.253644e-02f, -4.717204e-01f, -1.161756e+00f, +3.478185e-01f,
    +3.984653e-01f, +8.380856e-02f, -2.617621e-01f, -1.274457e-01f, +1.460304e-01f, +4.218260e-01f, -8.317291e-02f, +9.056693e-02f,
    +1.868885e-01f, +2.162811e-01f, -1.075752e-01f, -7.966186e-01f, +4.281105e-01f, +1.612113e-01f, +8.779957e-03f, +4.981467e-03f,
    -1.632023e-02f, +1.683204e-01f, +4.167379e-01f, -1.281220e-01f, -4.346279e-01f, -1.462924e-02f, -2.817546e-02f, -1.564797e-01f,
    -4.560523e-01f, +1.842293e-01f, +3.494158e-02f, -7.464187e-02f, -1.445222e-03f, -2.815274e-01f, +4.634048e-01f, +1.953377e-01f,
    -6.173820e-01f, +3.217806e-02f, -1.289520e-01f, -3.518312e-01f, -2.606600e-01f, -7.462313e-01f, -8.105600e-01f, +3.205509e-01f,
    +2.192191e-01f, -1.092424e-01f, +2.491503e-01f, +4.279655e-03f, +1.301537e-01f, +6.428372e-02f, -1.295331e-01f, -5.116565e-01f,
    -3.411057e-01f, -2.415437e-01f, +1.776773e-01f, -1.308236e-01f, +1.791072e-01f, -1.008658e-01f, -1.329536e-01f, -2.014186e-01f,
    -4.043632e-01f, -4.878357e-01f, -1.029762e+00f, +3.062350e-01f, -2.745188e-01f, +4.903519e-02f, -2.440448e-01f, -2.533618e-01f,
    -2.329888e-02f, -5.471804e-01f, -1.347172e-01f, -6.534366e-02f, -1.047249e-01f, +2.216119e-01f, +1.825625e-01f, -8.867322e-02f,
    +7.080563e-01f, -3.761112e-02f, +1.240210e-01f, -3.066251e-01f, +1.533538e-01f, -5.451302e-01f, -4.163934e-01f, -3.980108e-02f,
    +3.022069e-01f, +2.158394e-01f, -2.350345e-01f, +3.463256e-01f, +1.182836e-01f, -5.601707e-01f, -1.430020e-01f, -1.827060e-01f,
    -8.445396e-02f, -6.375102e-01f, +4.377032e-01f, -1.535427e-01f, -3.496759e-01f, +1.576539e-01f, -8.686745e-02f, -2.620372e-01f,
    +7.899058e-01f, -1.203225e-01f, +1.989537e-02f, -4.185869e-01f, -8.681744e-02f, +6.022919e-02f, -5.238410e-02f, +3.259475e-01f,
    -1.769930e-01f, +2.935577e-01f, -1.819225e-02f, -7.350936e-02f, +5.310613e-01f, +1.540004e-01f, -4.660703e-01f, -3.997948e-01f,
    +5.165462e-01f, +6.915201e-04f, +1.027014e-02f, +3.147116e-02f, +2.774546e-02f, +8.741578e-01f, +8.506688e-01f, +1.210409e-01f,
    -4.616176e-01f, -3.179830e-02f, +3.792186e-02f, +5.064625e-02f, -3.905648e-01f, +3.334593e-01f, -1.585172e-01f, -1.258978e-01f,
    +8.774186e-02f, -4.971222e-01f, +1.118344e-01f, +2.444260e-01f, +6.529715e-02f, -2.391051e-01f, -1.750497e-01f, +5.194535e-01f,
    +4.150354e-01f, -1.313040e-01f, -1.555334e-01f, -1.364393e-01f, +1.411268e-01f, +1.860749e-01f, +1.225941e-01f, +3.224826e-01f,
    -1.926994e-01f, -1.811706e-02f, -1.811985e-01f, +5.248200e-02f, -1.007651e-01f, +4.213376e-01f, +9.709659e-02f, -4.543564e-01f,
    -7.906427e-01f, +2.168140e-01f, -2.300880e-02f, -1.248077e-01f, -4.543114e-01f, +2.883666e-01f, +2.335811e-02f, +7.278959e-03f,
    -3.893580e-01f, +7.181733e-02f, -9.751201e-02f, +1.727956e-01f, +6.016490e-01f, +5.648652e-01f, -1.864397e-01f, +2.093764e-01f,
    +5.410080e-02f, +7.688420e-02f, -6.055341e-01f, +2.408035e-01f, -4.911754e-01f, -1.590406e-01f, -2.550242e-02f, +2.032137e-01f,
    -2.013314e-01f, +4.877750e-02f, -4.632580e-01f, -1.541623e-01f, -1.228516e-01f, +1.452153e-01f, +3.400002e-01f, -4.275526e-01f,
    +8.474115e-02f, -2.257317e-01f, +1.817847e-01f, +1.460893e-01f, -2.925355e-01f, +5.460364e-01f, +6.017190e-01f, +6.058567e-02f,
    +2.149372e-01f, -1.343792e-02f, -3.714822e-02f, -2.852939e-02f, +1.104110e-01f, -3.741756e-01f, +7.987013e-01f, +1.240074e-01f,
    +2.645574e-01f, -8.392926e-02f, +1.689191e-01f, -1.243812e-02f, +3.602229e-02f, +6.031402e-02f, -1.082376e-02f, +1.096612e-01f,
    -2.847025e-01f, +3.259187e-02f, +5.227487e-01f, -3.640634e-01f, -4.464362e-01f, +3.947075e-02f, -1.230090e-01f, +2.780646e-01f,
    -6.557562e-01f, -5.940481e-01f, -6.026128e-01f, -3.144643e-02f, +9.539279e-02f, -3.408477e-02f, +2.101097e-01f, -3.221292e-01f,
    +1.382958e-01f, +2.590189e-01f, +2.490622e-01f, -2.018242e-01f, +3.657933e-01f, +2.361046e-01f, -2.415557e-01f, -1.880082e-01f,
    +6.801439e-01f, -9.790686e-02f, -1.315729e-01f, -4.224282e-01f, +1.024509e-02f, +7.475072e-01f, +1.652400e-01f, +3.776858e-01f,
    -1.880555e-01f, -1.434101e-01f, -1.436091e-01f, +5.067503e-02f, -6.262310e-02f, +4.227804e-02f, -1.288934e-01f, -1.657089e-01f,
    -4.314896e-01f, +8.376241e-01f, +1.393367e-02f, -2.065616e-01f, +9.211468e-01f, +9.071644e-02f, -1.029345e-01f, +4.410677e-01f,
    -3.575631e-01f, +2.744135e-01f, +5.542814e-01f, +2.160172e-01f, +2.038720e-01f, +6.746555e-02f, -3.017660e-01f, -2.948002e-01f,
    -4.601278e-03f, -3.185477e-01f, +1.893486e-01f, -1.701209e-01f, -1.678048e-01f, -1.051569e+00f, -4.335899e-02f, -1.687485e-01f,
    +4.652847e-01f, -1.520633e-01f, -1.225108e-01f, -4.357416e-02f, +6.594425e-01f, +1.436242e-02f, -8.949232e-01f, -2.225275e-01f,
    +7.085319e-02f, -2.017818e-01f, -2.946712e-01f, +4.684101e-01f, -5.413119e-02f, -3.952565e-01f, -4.758026e-02f, -3.429826e-02f,
    -4.318449e-01f, +4.947782e-01f, +3.089548e-01f, +6.974498e-02f, -3.469531e-02f, +2.958335e-02f, -4.335880e-02f, +3.708579e-01f,
    +5.440811e-02f, -9.881638e-01f, -2.845955e-02f, +6.592329e-02f, +1.206112e-01f, +1.928091e-01f, +6.595007e-02f, +7.964303e-02f,
    +2.267089e-02f, -3.528601e-01f, -2.396853e-01f, +2.136133e-01f, +3.258395e-01f, -6.515791e-01f, -5.575733e-01f, +2.271130e-01f,
    -5.774264e-01f, +1.288806e-01f, +1.702635e-01f, -1.299298e-01f, +8.673280e-02f, +1.535141e-01f, -2.923748e-01f, -3.146275e-01f,
    -3.525205e-02f, -1.512834e-01f, -1.733791e-01f, -1.588595e-01f, -1.500268e-01f, -1.372249e-01f, +1.155378e-01f, -3.361396e-01f,
    +1.244317e-01f, +7.957596e-01f, +2.598616e-01f, -1.285825e-01f, +9.868249e-02f, -4.282517e-02f, -1.262403e-01f, +6.509596e-02f,
    -3.433313e-01f, -2.936784e-01f, +8.275340e-01f, +4.159489e-02f, +7.891404e-02f, +1.204544e-01f, -1.814764e-01f, -8.642114e-02f,
    +3.254821e-01f, +2.576059e-01f, -3.696131e-02f, +3.528866e-01f, +3.785890e-01f, -6.471044e-01f, +1.680610e-01f, -2.593676e-01f,
    +5.268189e-01f, +1.388488e-01f, +1.274080e-01f, +1.256375e-01f, +9.714502e-02f, -5.840310e-02f, -1.188380e+00f, +7.907914e-03f,
    -2.543534e-01f, +1.952880e-02f, +1.002835e-01f, -4.622074e-01f, +4.643807e-01f, -1.422179e-01f, +1.745505e-01f, +1.944490e-01f,
    +1.642599e-01f, -1.890285e-01f, -4.309179e-01f, +1.694352e-02f, -9.221219e-01f, +1.286268e-01f, +1.103359e-01f, -2.521979e-01f,
    +3.328024e-01f, +2.529112e-02f, +2.808204e-01f, -2.917146e-01f, -1.608205e-01f, +1.184040e-01f, -1.726851e-01f, -1.464383e-01f,
    -1.910320e-01f, -6.073961e-01f, -7.971209e-02f, -2.107037e-01f, -2.986087e-02f, -1.247085e+00f, -6.063554e-01f, -1.736988e-02f,
    -8.287722e-01f, +6.691011e-03f, -3.337049e-02f, -7.509674e-03f, -2.041844e-01f, -3.806296e-01f, -9.261467e-01f, +4.208881e-02f,
    +1.114577e-01f, +1.430662e-01f, -2.619185e-01f, +7.036865e-02f, +2.919897e-01f, +4.059690e-01f, +3.461286e-01f, -6.431472e-02f,
    +1.404914e-01f, +2.408841e-01f, -1.773227e-01f, +1.001718e-01f, +1.182770e+00f, -6.008112e-02f, -4.535437e-04f, -2.761374e-01f,
    +1.037978e+00f, +9.950753e-01f, +8.029661e-01f, -3.030721e-02f, -3.213781e-01f, -1.465837e-01f, +2.428136e-01f, -6.248622e-02f,
    -1.343487e-02f, +5.479685e-01f, -3.157031e-02f, -2.542666e-01f, +4.613637e-01f, +2.403054e-01f, -4.478992e-01f, -5.806705e-01f,
    -1.549904e-01f, +9.259830e-03f, -1.210883e-01f, -4.963812e-03f, -5.149858e-01f, +5.841177e-01f, -6.516201e-01f, +8.430430e-03f,
    -4.284364e-01f, +1.425279e-01f, -3.705692e-02f, -2.486563e-02f, -2.206200e-01f, -3.741433e-01f, +7.327963e-02f, -1.599974e-01f,
    +4.805530e-02f, -2.367664e-01f, +2.072485e-01f, -9.662834e-01f, -6.449708e-01f, -1.703573e-01f, -1.360251e-01f, -8.798191e-01f,
    -6.490247e-01f, -3.486497e-02f, +3.128262e-01f, +3.362345e-01f, -4.116737e-02f, -1.276641e-01f, -1.555930e-01f, +2.291553e-01f,
    -1.482928e-01f, +3.180953e-01f, +2.018883e-01f, -3.679633e-01f, +1.387772e-01f, -9.664354e-02f, -3.639817e-01f, -3.574838e-01f,
    +6.692616e-02f, -1.947417e-01f, -2.050361e-01f, -1.100313e+00f, -4.869743e-01f, +1.266798e-01f, -1.351357e-01f, +2.117303e-01f,
    -1.750117e-01f, -1.459810e-01f, -1.779273e-02f, -3.585354e-01f, +2.375392e-01f, +1.564266e-01f, +1.604614e-01f, +1.732732e-01f,
    +3.109718e-01f, -5.556995e-01f, -3.090755e-03f, -3.881589e-02f, +3.135630e-01f, +5.904787e-02f, +9.246322e-02f, -2.682626e-02f,
    +7.766846e-01f, -3.844852e-02f, -7.169841e-01f, -2.566459e-01f, -2.090217e-01f, +1.995942e-01f, +3.385668e-01f, +1.539645e-01f,
    -1.861430e-01f, +4.083197e-01f, +1.146068e-01f, -6.250887e-01f, +1.295052e-01f, +1.260212e-02f, +9.121818e-02f, -8.532498e-01f,
    +2.937761e-01f, -1.009578e-01f, +3.446674e-03f, -4.757981e-01f, -4.785551e-01f, +2.603609e-01f, +9.603310e-02f, +4.712322e-01f,
    +1.325960e-01f, +1.276599e-01f, -7.748526e-02f, -3.092870e-01f, -1.029232e-02f, -3.407577e-01f, +2.645316e-01f, +1.008874e-01f,
    -2.831498e-01f, +7.071174e-01f, +3.881520e-01f, -2.290028e-01f, +2.538152e-01f, +1.540127e-02f, +1.086310e-02f, -1.885710e-02f,
    +1.893264e-01f, -1.055054e-01f, +8.655613e-01f, +2.713682e-01f, +3.528417e-01f, +1.130153e-02f, -7.204599e-03f, +1.301264e-01f,
    -3.158937e-02f, +6.013311e-02f, +1.202398e-01f, +2.424286e-01f, +2.449150e-01f, +7.627476e-02f, +2.156225e-01f, -5.357735e-02f,
    +1.947245e+00f, +1.524294e-01f, +3.256799e-02f, +4.042011e-01f, +9.202370e-01f, +4.909819e-01f, +2.773499e-01f, -2.443563e-01f,
    -3.230698e-01f, +2.085890e-01f, -4.272456e-01f, +1.077668e-01f, +2.839958e-01f, -1.356569e-01f, -5.550428e-02f, +3.492730e-01f,
    -1.975614e-01f, -1.253281e+00f, +6.101547e-01f, +1.511997e-01f, -3.668030e-01f, +1.639446e-02f, -6.364445e-03f, -6.004186e-01f,
    +1.290526e-01f, -1.016738e+00f, -1.198285e+00f, -1.120428e-01f, +2.560251e-02f, +1.344282e-01f, -4.760071e-02f, +1.526694e-01f,
    +1.004763e-01f, +2.246362e-01f, +2.707497e-02f, -6.059664e-02f, +2.788090e-01f, +8.980634e-01f, -1.586887e-01f, -4.732081e-02f,
    +1.984944e-01f, -9.679236e-02f, +7.322666e-03f, -6.754939e-02f, +2.057015e-01f, +1.437541e+00f, +1.644639e+00f, +1.812702e-01f,
    -2.283133e-01f, +4.385606e-03f, -3.043757e-01f, -2.434440e-01f, +1.153068e-01f, +1.937084e-01f, +2.134718e-02f, -1.868113e-01f,
    -7.840783e-02f, -2.231368e-01f, +6.251175e-02f, -7.631420e-02f, +7.658832e-01f, +1.823718e-01f, +5.414545e-02f, +3.727891e-01f,
    -4.248351e-02f, +1.313310e-01f, +5.777488e-01f, -7.068157e-03f, -2.749029e-01f, +2.060403e-03f, -3.097447e-01f, -1.113415e-01f,
    +2.971686e-01f, +6.269097e-01f, +1.811636e-01f, -3.485699e-02f, +3.515273e-01f, -1.154257e+00f, +9.171778e-02f, -1.741982e-01f,
    +2.421984e-01f, +3.507181e-02f, +4.801328e-02f, -6.436670e-02f, -1.202361e-01f, +4.335020e-01f, -2.667836e-01f, +1.383317e-01f,
    -3.787226e-01f, +1.961533e-01f, +1.907883e-02f, -3.723250e-01f, +5.622047e-01f, +5.448911e-01f, -6.615139e-02f, +2.914638e-01f,
    +5.113792e-01f, -4.730207e-01f, -4.433302e-01f, +3.220765e-01f, -1.891724e-02f, -4.210382e-03f, +6.301484e-02f, +2.577139e-02f,
    -1.505426e-01f, +6.770424e-01f, -9.810022e-01f, -2.460373e-01f, -1.796647e-01f, -1.262338e-01f, +1.623341e-01f, -3.011349e-01f,
    -5.981855e-02f, -3.591103e-02f, +1.264346e-01f, -4.912034e-01f, -1.658715e-01f, +1.473855e-01f, +2.291986e-01f, -6.567224e-01f,
    +2.782320e-01f, +1.445029e-02f, -2.777082e-02f, +3.310013e-01f, -3.787970e-01f, -7.115632e-02f, +2.745351e-01f, +2.804541e-01f,
    +2.472085e-01f, +1.341958e-01f, -4.672273e-01f, -2.230679e-01f, +1.296454e-01f, +2.021015e-01f, -2.856359e-01f, -2.660595e-02f,
    +1.954264e-01f, -4.012142e-01f, +9.625472e-02f, -8.146276e-02f, -9.134952e-01f, -1.646946e-01f, -1.344082e-01f, -2.505882e-01f,
    +1.755265e-01f, -1.197691e-01f, -3.517787e-02f, +1.984427e-01f, -1.828636e-01f, +1.207999e-01f, +3.478029e-01f, -2.455936e-01f,
    -3.866397e-02f, -2.384985e-01f, +1.372601e-02f, +4.634982e-02f, -2.292435e-01f, -1.708777e-01f, +4.287153e-01f, -1.678372e-01f,
    +6.992998e-01f, +1.876588e-02f, +9.619556e-02f, -1.478040e-02f, -7.573550e-02f, -2.076132e-01f, -1.095917e+00f, -3.061754e-02f,
    +2.685230e-01f, +1.338214e-01f, -2.462136e-01f, +1.405328e-01f, -5.387371e-02f, +2.692218e-01f, +2.672435e-01f, -6.032687e-01f,
    +2.297807e-03f, -1.450478e-01f, -3.026888e-01f, -6.447359e-01f, -9.227434e-01f, -8.813785e-04f, +8.484496e-02f, -3.128437e-01f,
    -5.588287e-01f, -1.036794e-01f, -2.593013e-01f, +4.133633e-01f, -8.654351e-02f, -4.470063e-02f, +7.419921e-02f, -3.163253e-01f,
    -1.188201e-01f, +6.949789e-01f, +2.582510e-02f, +5.095915e-02f, +3.907667e-01f, -5.485611e-01f, -3.078339e-01f, +2.203498e-01f,
    -1.180450e-01f, -7.701901e-02f, -7.956978e-02f, +9.240644e-02f, -1.032586e-01f, +1.475424e-01f, -1.415569e+00f, -1.178762e-01f,
    -6.239239e-02f, -2.194888e-01f, +1.168024e-01f, -1.498181e-02f, -7.502843e-02f, +6.476065e-01f, +1.314565e-02f, -2.903631e-01f,
    +2.797050e-01f, -3.866439e-01f, -5.244622e-01f, +2.365443e-01f, +1.788132e-01f, -2.654649e-02f, +2.026756e-02f, +5.749517e-01f,
    -6.814716e-01f, +4.687212e-01f, +6.581253e-02f, -2.403825e-01f, -5.337292e-01f, +4.934952e-02f, -8.366910e-02f, -7.175410e-01f,
    -7.469006e-02f, +3.118187e-01f, +1.975212e-01f, +2.700605e-01f, +2.886621e-01f, -7.846138e-01f, -5.675811e-01f, +1.996878e-02f,
    +5.271292e-01f, -1.697648e-01f, -5.615433e-02f, -2.640761e-01f, +1.007058e+00f, +5.759090e-01f, -1.994354e-01f, -1.768423e-01f,
    -9.217915e-02f, +1.127848e-01f, -5.819726e-02f, +3.849492e-01f, +5.788954e-02f, -5.219987e-01f, +2.878638e-01f, +2.546079e-02f,
    -4.217001e-01f, +8.800578e-01f, +3.517416e-01f, +2.407706e-01f, +3.571144e-01f, +1.269404e-02f, -2.160696e-02f, +1.711958e-01f,
    +6.079076e-01f, -3.804779e-01f, +7.802777e-01f, +2.024879e-01f, +4.529537e-01f, -7.902008e-02f, +2.017182e-01f, +3.370309e-02f,
    +1.271275e-01f, +1.598331e-01f, +2.835247e-01f, -1.410972e-01f, -1.666033e-02f, +4.336089e-01f, -1.632630e-01f, +7.241235e-02f,
    -1.277148e+00f, +3.281255e-02f, +1.319967e-02f, -1.356313e-01f, +2.794241e-01f, +4.022707e-01f, +1.047218e+00f, -4.389643e-02f,
    -1.673091e-02f, +9.125617e-02f, +1.054810e-01f, +3.538364e-01f, +2.373119e-01f, -5.338865e-01f, -1.006652e-01f, -6.315069e-02f,
    +1.183441e-01f, -2.320227e-01f, -2.428271e-01f, +3.133186e-01f, -3.987649e-01f, +1.290889e-01f, +1.723501e-01f, +1.957147e-01f,
    +2.917646e-01f, -1.087458e-01f, +4.994932e-02f, -1.775738e-01f, -3.992364e-02f, +8.559111e-03f, +2.413246e-03f, -1.432200e-01f,
    -2.042200e-01f, -1.209373e-02f, +1.595676e-02f, -3.977894e-01f, -4.091685e-01f, +3.866289e-01f, -5.962699e-02f, -1.364888e-01f,
    +1.571112e-01f, +1.281273e-01f, +1.128771e-01f, +3.549846e-01f, -9.618162e-01f, -1.751438e-01f, -5.668760e-03f, +2.757283e-01f,
    +2.795530e-01f, +1.493503e-01f, -2.116114e-01f, -5.126685e-01f, -1.469794e-01f, -1.858554e-01f, +5.168844e-03f, +4.765843e-02f,
    +3.594339e-01f, -4.994685e-01f, -3.930112e-01f, +1.684866e-01f, +2.292987e-01f, -5.998547e-02f, -1.558342e-01f, +2.248851e-01f,
    +3.989453e-01f, +2.912668e-02f, -3.204472e-01f, -1.878069e-01f, +2.386926e-01f, -1.977807e-01f, -2.918001e-01f, +2.177472e-01f,
    -3.111213e-01f, -3.136252e-02f, -2.537500e-01f, +1.974927e-01f, +1.772137e-01f, -1.049463e-01f, -4.190300e-01f, +1.717097e-01f,
    -5.717513e-01f, +1.470018e-01f, +2.155408e-01f, -4.870236e-02f, -1.128454e-01f, -1.075591e-01f, -1.694901e-01f, +1.423559e-02f,
    -3.054391e-01f, -6.573091e-02f, -1.708206e-02f, +2.026334e-01f, -3.740967e-01f, +1.835680e-01f, +1.398323e-01f, +1.551755e-01f,
    +3.351290e-01f, -1.122630e+00f, -5.960977e-01f, -1.291265e-01f, -5.588335e-01f, +2.213786e-01f, +1.952269e-01f, -2.373504e-01f,
    -5.969394e-02f, +4.107652e-01f, -1.161837e+00f, -2.268960e-01f, -3.155773e-01f, -8.284559e-02f, -1.717842e-01f, +9.912481e-02f,
    +1.173090e-01f, +5.057005e-01f, +9.074178e-02f, +2.627005e-01f, -1.109008e-01f, -1.621989e-01f, +1.552045e-01f, +2.914516e-01f,
    +8.916538e-02f, +7.050741e-02f, +8.779357e-02f, -3.383448e-02f, -1.481564e-01f, +5.791552e-01f, -4.321634e-01f, -3.652706e-01f,
    -3.893073e-01f, -1.526503e-01f, +2.218737e-01f, -1.004918e-01f, -1.134888e-01f, +3.654324e-01f, -5.675498e-02f, +6.496961e-02f,
    +4.573483e-03f, +1.037366e+00f, -4.579782e-03f, -9.168207e-02f, -7.266289e-01f, -3.659401e-02f, +3.913703e-02f, -8.451195e-01f,
    -1.085534e-01f, -3.363336e-02f, +1.603429e+00f, +2.035528e-01f, +1.971074e-01f, +4.168200e-04f, -2.110389e-02f, -5.615506e-02f,
    -3.474030e-01f, +2.683859e-01f, -1.971813e-01f, -3.700987e-01f, +1.720548e-01f, -1.226825e-01f, -1.850583e-01f, +1.596736e-01f,
    -1.814435e-01f, +1.494524e-01f, +2.538782e-01f, +2.311273e-01f, -1.125768e-01f, +3.265457e-01f, +1.894448e-01f, -2.889337e-01f,
    -8.188315e-02f, -1.361094e-01f, -1.878814e-01f, -2.535701e-01f, +1.676023e-01f, -4.377830e-01f, +3.110122e-01f, +9.848467e-02f,
    -3.759156e-02f, +3.205301e-01f, +4.312244e-01f, +3.494498e-01f, +3.375288e-01f, -6.806923e-03f, +7.875896e-02f, +3.737383e-02f,
    +8.275287e-01f, -4.772837e-01f, -1.860346e-01f, -6.512344e-01f, +8.262734e-02f, +1.775507e-01f, +1.483526e-01f, +3.090430e-01f,
};

static const float B1[64] = {
    +2.210197e-02f, +1.832935e-01f, -1.214959e-02f, -1.351328e-01f, +1.314129e-01f, +2.863843e-01f, -2.184065e-01f, +3.135265e-02f,
    +1.342972e-01f, -1.167563e-01f, +5.555376e-02f, +1.142487e-01f, +1.053065e-01f, +2.116329e-01f, -2.560019e-02f, -8.019681e-03f,
    +8.625729e-02f, +1.546387e-01f, +1.527522e-01f, +1.240029e-02f, +1.729422e-01f, -2.446139e-01f, +1.562381e-01f, -1.438636e-01f,
    +1.728771e-01f, -7.583892e-03f, -6.251219e-02f, +1.415555e-01f, -2.539065e-01f, +1.630565e-01f, +1.104845e-01f, +2.945983e-03f,
    +1.020428e-01f, -3.859370e-02f, +1.896696e-01f, -3.566294e-02f, -1.624194e-02f, +1.354417e-01f, +5.685029e-02f, +1.397908e-01f,
    +5.858527e-03f, +1.408326e-01f, +2.273190e-01f, +8.658019e-02f, -1.991450e-01f, +5.058311e-02f, +4.023135e-02f, -8.147056e-02f,
    +2.839428e-01f, -9.211301e-02f, -1.946016e-01f, +7.610759e-02f, -1.752930e-01f, +2.069769e-01f, +6.966459e-02f, -3.248310e-01f,
    +1.980312e-01f, +1.034673e-01f, -2.588975e-01f, +3.982607e-02f, +1.123656e-01f, -7.146791e-02f, -3.525219e-01f, +9.600685e-02f,
};

static const float W2[4096] = {
    +6.850087e-02f, +2.422923e-03f, +1.852159e-01f, -1.408193e-01f, -2.343395e-01f, -1.595331e-01f, -7.270318e-02f, +2.012241e-01f,
    +1.422417e-02f, -1.544207e-01f, +3.890353e-01f, -3.025446e-01f, +1.558499e-01f, +2.766381e-01f, -1.388669e-02f, +1.957106e-02f,
    -4.607293e-02f, -1.508812e-01f, +3.925014e-02f, +6.975533e-03f, +1.913178e-01f, +9.230211e-02f, +5.090693e-02f, -4.544647e-02f,
    +1.169995e-02f, +2.001394e-01f, +6.619392e-02f, +2.353604e-02f, -2.414358e-01f, +7.759164e-02f, +2.086748e-02f, -3.184984e-01f,
    -1.158785e-01f, +1.288948e-01f, +4.420692e-02f, +3.706266e-01f, +1.386226e-01f, -1.175200e-01f, +1.229030e-01f, -4.421625e-02f,
    +1.715488e-01f, +7.917082e-02f, -8.825452e-03f, +2.153000e-01f, -5.100242e-02f, -1.980732e-01f, +2.005747e-01f, -1.601153e-01f,
    +4.550745e-02f, -1.625896e-01f, +9.157840e-05f, +2.101432e-01f, -2.655206e-01f, +9.098223e-02f, -1.290156e-01f, -3.496034e-01f,
    +2.516209e-01f, -7.540898e-02f, -2.120167e-01f, -3.366466e-01f, -1.488628e-01f, +2.026167e-02f, -4.164779e-02f, -1.287257e-01f,
    -6.066753e-02f, +3.857866e-02f, +8.691321e-02f, +6.525835e-02f, -1.197174e-02f, +1.044860e-01f, +2.012464e-02f, -4.090744e-02f,
    -4.699811e-02f, +2.140107e-02f, -6.675372e-02f, +3.355423e-02f, -1.572207e-02f, -1.450887e-01f, -5.823263e-02f, -1.562385e-01f,
    +2.105155e-02f, +1.303109e-02f, -3.286633e-03f, +1.206959e-01f, -1.100345e-01f, -5.079298e-02f, +6.685763e-02f, -7.924105e-02f,
    +9.438033e-02f, +6.710434e-02f, +7.296019e-02f, -1.467817e-01f, -9.821704e-02f, -1.108190e-01f, +3.668344e-02f, -4.568177e-02f,
    +1.151322e-02f, -4.467691e-02f, -8.777481e-02f, -1.075050e-01f, -1.102509e-01f, -3.013789e-02f, -5.831817e-02f, -1.494077e-01f,
    -5.333083e-03f, -4.559138e-02f, -5.516845e-02f, +5.850684e-02f, +6.281374e-03f, +6.480362e-02f, -4.595701e-02f, -4.074438e-02f,
    -2.378339e-02f, +3.486521e-02f, +3.724265e-02f, -1.457319e-01f, +3.847158e-02f, -8.196820e-02f, +6.950161e-02f, -1.293315e-01f,
    +2.886888e-02f, -6.749534e-03f, -4.555246e-02f, -8.192516e-02f, -1.231984e-01f, -3.182752e-02f, -2.428469e-02f, -1.405700e-01f,
    -1.179502e-01f, +1.889226e-01f, -1.237050e-01f, +2.300924e-01f, -3.737130e-01f, +5.441083e-02f, +1.557589e-01f, -1.360526e-01f,
    +2.764154e-01f, -9.748493e-02f, +1.823245e-01f, +2.364323e-01f, +2.468013e-01f, +6.151222e-02f, +2.036182e-01f, +2.872751e-01f,
    +5.176578e-03f, -1.148733e-01f, -2.059892e-01f, -1.754413e-01f, -2.162635e-01f, +6.397409e-02f, +5.954731e-02f, -7.725499e-02f,
    +6.433141e-02f, +1.078869e-01f, +3.074034e-01f, +1.808277e-01f, +2.335973e-02f, -7.708468e-02f, +1.403506e-01f, -6.002783e-02f,
    +2.286653e-01f, +1.468960e-02f, -1.132773e-01f, -4.969450e-03f, -2.417223e-02f, +1.894227e-01f, +1.927365e-03f, +1.532488e-02f,
    +9.498266e-02f, -3.862954e-02f, -2.440506e-01f, +1.387084e-01f, +5.789135e-02f, +1.303680e-01f, +1.429814e-01f, +1.529852e-01f,
    +3.505407e-02f, +6.419942e-02f, -5.666640e-02f, +1.110132e-01f, -2.659712e-02f, +5.735328e-02f, -1.678647e-01f, +3.239900e-01f,
    +4.320756e-01f, +1.158524e-01f, +5.200595e-02f, +2.178682e-01f, +2.330938e-01f, -8.334240e-02f, -6.227971e-02f, -2.243536e-01f,
    +3.287593e-01f, -1.537285e-01f, -1.344922e-01f, -1.339027e-01f, +1.967039e-01f, +7.973263e-02f, +2.515929e-01f, +1.558070e-01f,
    +6.751157e-02f, -4.399832e-02f, +2.412961e-02f, -2.826432e-02f, -2.240171e-01f, +1.956979e-01f, -5.061962e-02f, -2.376879e-01f,
    -2.555342e-01f, -6.200115e-02f, +3.036332e-01f, +8.055031e-02f, +2.430802e-01f, +3.612585e-01f, -2.380660e-01f, +2.041935e-01f,
    +1.262948e-01f, +4.042312e-01f, -6.855384e-02f, -1.873993e-01f, -2.077152e-01f, -1.507502e-01f, +4.304237e-01f, -2.581208e-01f,
    +2.267505e-01f, +1.660567e-01f, +3.951641e-01f, -1.119556e-01f, -3.798338e-02f, +1.802325e-01f, +2.107793e-02f, -2.703365e-01f,
    +1.145003e-01f, -2.037086e-01f, +2.417010e-01f, +2.285700e-02f, +1.466316e-01f, +7.464430e-01f, -2.247727e-02f, -2.882130e-02f,
    -1.429157e-01f, +1.852584e-01f, +4.408948e-01f, +4.409898e-01f, +1.870863e-01f, -3.188975e-01f, -8.047513e-02f, -1.451989e-01f,
    +1.083301e-01f, -1.497069e-01f, -3.843091e-01f, +1.126186e-01f, +3.529041e-01f, -8.614355e-02f, +6.118241e-03f, -3.180020e-01f,
    +2.581099e-01f, -1.420233e-01f, -1.355310e-01f, +3.652543e-02f, -1.318169e-01f, -6.688237e-02f, +1.933645e-01f, +4.085181e-02f,
    +7.055638e-02f, +8.944883e-02f, -2.801692e-01f, +1.446186e-01f, -1.357149e-01f, +4.713929e-02f, -1.206746e-01f, -2.131747e-01f,
    -3.354717e-02f, -1.235457e-01f, +1.479792e-01f, -2.204420e-01f, +1.944021e-01f, +9.524015e-02f, -1.560121e-01f, +5.694748e-02f,
    +4.051444e-02f, +8.290864e-02f, +2.101741e-02f, +3.658133e-02f, +1.378214e-01f, +9.465564e-02f, -6.608146e-02f, +3.182139e-01f,
    +3.569937e-02f, +1.466632e-01f, +1.958650e-01f, -3.936416e-01f, -3.826317e-02f, -2.585367e-02f, +7.056420e-02f, -2.390293e-01f,
    -9.314185e-02f, -3.423321e-02f, +9.678673e-02f, +1.285307e-01f, -1.912410e-01f, +2.293908e-01f, -2.775772e-01f, -1.611423e-01f,
    -1.691711e-01f, +1.362480e-01f, +2.432261e-01f, +2.270770e-01f, +1.899350e-01f, -1.264465e-01f, +1.598015e-01f, +2.129309e-01f,
    -3.345708e-01f, +2.722871e-02f, +4.359370e-02f, +2.044464e-01f, +2.251535e-01f, -3.354527e-03f, +2.280928e-01f, +1.482417e-01f,
    +2.453022e-01f, -1.592167e-01f, +7.420526e-02f, -2.628018e-01f, +5.237374e-02f, +4.278130e-01f, -1.766091e-01f, +3.124950e-02f,
    -2.426377e-01f, -5.352191e-01f, +1.128374e-01f, -1.910889e-01f, +2.940962e-01f, +1.433311e-01f, -1.767570e-01f, +6.995396e-02f,
    -1.950286e-01f, -2.979911e-01f, +4.962451e-01f, -2.211662e-01f, +4.201117e-02f, -1.725755e-01f, -1.031574e-01f, -4.569039e-03f,
    +2.179780e-01f, -9.623767e-02f, -4.850774e-02f, -2.725526e-01f, +4.569816e-02f, +7.564346e-02f, +2.469964e-01f, -2.516106e-01f,
    -8.290499e-02f, +4.855008e-02f, +2.326543e-01f, +4.080359e-01f, +1.157870e-01f, +1.992313e-01f, +2.961034e-01f, -1.277247e-01f,
    +2.064771e-01f, -5.584969e-02f, -3.018068e-02f, +8.443028e-02f, +2.736489e-01f, +1.477267e-01f, +4.144322e-01f, +1.562934e-01f,
    -7.728367e-02f, +4.086355e-01f, +1.890959e-01f, +2.385160e-01f, -3.388195e-01f, -2.201738e-01f, -1.038560e-01f, -1.930991e-01f,
    +4.722156e-01f, -8.366578e-02f, -4.115727e-01f, -1.584175e-02f, -6.409606e-02f, -1.117012e-02f, -7.851341e-02f, -4.363996e-01f,
    +5.446655e-02f, -2.210622e-01f, +2.160370e-02f, -3.877832e-02f, -1.018698e-01f, +1.604647e-01f, +3.692903e-01f, -1.466809e-01f,
    -3.468847e-01f, +1.955889e-01f, -1.928161e-02f, -2.021437e-01f, -8.542771e-02f, -6.400254e-02f, +1.633400e-02f, -2.723750e-01f,
    -3.592485e-02f, -8.158798e-02f, +1.483468e-01f, -2.286958e-01f, -1.897745e-01f, -1.413319e-01f, -1.228499e-01f, +5.581999e-02f,
    +1.431882e-01f, +3.183349e-01f, -2.955875e-01f, -1.581925e-01f, +3.247388e-01f, -1.547544e-02f, -6.286091e-02f, +2.373053e-01f,
    -1.254334e-01f, +1.357078e-02f, +2.110762e-01f, -2.632701e-01f, -4.185174e-02f, +5.161120e-02f, -1.089028e-01f, -1.649552e-01f,
    -2.177098e-01f, +2.687077e-02f, +1.500845e-01f, +1.058199e-01f, +1.030502e-01f, +3.503541e-01f, +1.210210e-01f, +1.689322e-01f,
    -7.187800e-02f, -5.959209e-02f, +2.396464e-01f, +4.387825e-02f, -1.486109e-01f, -9.879062e-02f, +1.819753e-01f, +2.388729e-01f,
    +1.781590e-01f, -6.229271e-01f, +1.548323e-01f, -2.304512e-02f, +1.409846e-01f, -6.689423e-02f, +4.456543e-01f, -2.393270e-01f,
    +7.843251e-03f, +1.155451e-01f, +2.254205e-01f, -9.169653e-02f, +3.853264e-02f, -1.677947e-01f, -7.452723e-02f, -5.031550e-03f,
    -7.346814e-02f, -1.204525e-01f, +2.554040e-02f, -1.022212e-01f, -8.577432e-02f, -1.528036e-01f, +5.885252e-02f, -2.053655e-01f,
    -9.506979e-02f, -1.879415e-02f, -1.806774e-01f, +1.263545e-01f, +2.248083e-02f, +3.879240e-02f, +1.098297e-01f, +2.122712e-01f,
    -7.446975e-02f, -1.837790e-02f, -7.649742e-02f, +1.850019e-01f, -1.414036e-01f, +9.028372e-02f, -2.648519e-01f, -1.847249e-01f,
    +6.152218e-02f, +9.893168e-02f, -1.615257e-01f, -8.693339e-03f, -1.179114e-01f, -7.880378e-02f, +4.146794e-02f, +3.545510e-02f,
    -1.033381e-01f, +1.109916e-01f, -1.636045e-01f, -1.039889e-02f, +1.317546e-02f, -3.102518e-01f, -1.849947e-01f, +4.630124e-02f,
    -2.591578e-01f, +2.271499e-02f, -6.929151e-02f, -2.457693e-01f, -1.361793e-03f, +1.754003e-02f, +2.078407e-02f, -1.445114e-01f,
    -4.115956e-03f, +1.306858e-01f, -1.216645e-01f, -4.146655e-01f, -1.692285e-01f, -2.060469e-02f, -8.087657e-02f, -1.813558e-01f,
    -4.979258e-02f, +5.446141e-03f, +9.269282e-03f, -8.665807e-02f, -6.173226e-02f, -3.886870e-02f, -7.062153e-02f, -1.505638e-02f,
    +5.364305e-03f, -1.015463e-01f, -7.600989e-02f, +4.722232e-02f, +1.625389e-01f, -9.726677e-02f, -2.026861e-01f, +9.577749e-02f,
    +5.256905e-02f, +8.415303e-02f, +2.404145e-02f, +9.100767e-02f, -7.373344e-02f, -9.326959e-02f, +3.065423e-02f, -1.408903e-02f,
    -8.438098e-02f, -2.099695e-01f, -2.696765e-01f, +2.256298e-01f, -1.488485e-01f, -1.313352e-01f, -1.377801e-01f, -1.604626e-01f,
    -1.369245e-01f, -1.593932e-01f, -8.563004e-02f, -3.295655e-01f, -5.087840e-01f, -5.599100e-02f, +1.243017e-01f, -1.232304e-03f,
    +1.940724e-02f, -6.828333e-02f, +9.253611e-02f, +4.627022e-02f, -8.859393e-02f, -2.395821e-01f, -2.826592e-02f, -6.279092e-02f,
    +7.914214e-02f, +1.063239e-01f, +7.184331e-02f, -2.430562e-01f, -6.250112e-02f, -9.196042e-02f, -2.251334e-02f, -2.956345e-01f,
    +2.533402e-01f, -2.008060e-01f, -1.172559e-01f, -9.123432e-02f, -1.402625e-01f, -7.468075e-02f, -6.369386e-02f, -8.685614e-02f,
    -1.293835e-01f, -2.833616e-02f, +5.973595e-02f, +6.434882e-02f, +2.056493e-03f, +5.328152e-02f, -3.551403e-02f, +4.010451e-02f,
    +5.734586e-03f, +5.612916e-03f, -5.631638e-02f, -8.337393e-02f, -4.561999e-02f, +2.406793e-02f, +8.080510e-02f, +1.838219e-02f,
    +5.549904e-02f, +5.149069e-02f, -4.453158e-02f, -1.063446e-01f, -7.460503e-02f, +9.308880e-02f, +1.350040e-02f, -1.463940e-01f,
    +3.461871e-02f, -8.874232e-02f, -1.062455e-01f, +8.033471e-02f, +4.703141e-02f, -1.441294e-01f, -8.442984e-02f, +1.941718e-02f,
    +5.957912e-02f, -9.022574e-02f, -4.474470e-02f, -6.283934e-02f, +4.409467e-02f, -1.328630e-01f, -9.391683e-02f, -3.095467e-02f,
    +9.714715e-03f, -8.049634e-02f, -1.153149e-01f, -3.099124e-02f, +3.883568e-03f, -1.648025e-01f, -5.364543e-02f, -1.798841e-01f,
    +6.008947e-03f, -8.009110e-02f, +1.437074e-02f, -1.243162e-01f, +1.827983e-02f, -6.883764e-02f, +6.119202e-02f, -1.310085e-01f,
    +1.250826e-02f, +3.246761e-02f, +6.257449e-02f, +5.356162e-02f, +4.339150e-02f, -2.593816e-02f, -1.134563e-01f, +5.425463e-02f,
    -1.466478e-01f, +3.229337e-01f, -1.092401e-01f, +1.916862e-01f, +2.462587e-01f, +4.254125e-02f, -1.935692e-01f, -9.127362e-02f,
    -1.267850e-02f, +1.774076e-02f, -2.761639e-02f, +1.098959e-01f, +7.642600e-02f, +1.066232e-01f, +3.655131e-02f, +2.848766e-01f,
    -1.193321e-01f, +1.937905e-01f, -2.784850e-01f, -2.040699e-01f, +2.097127e-01f, -1.607817e-01f, +1.462558e-01f, +1.018442e-01f,
    -4.393678e-02f, -1.015757e-01f, -1.520163e-01f, +6.757939e-03f, +1.971219e-02f, +1.497616e-02f, -8.078960e-02f, +1.570326e-01f,
    +8.536528e-02f, -1.692729e-01f, -1.166973e-01f, +3.840481e-01f, +7.490075e-02f, +5.916717e-02f, +1.233925e-01f, +1.200265e-01f,
    -2.443838e-01f, +1.662875e-01f, -6.719133e-02f, -1.152483e-01f, +1.411082e-01f, -4.189346e-01f, +1.539858e-01f, +2.934440e-01f,
    -7.293117e-03f, +1.971699e-01f, -2.969902e-01f, -3.565889e-01f, -3.020750e-01f, +1.302045e-01f, +3.021014e-01f, -3.006250e-01f,
    +2.221292e-01f, -8.299692e-02f, +2.809097e-01f, -4.476858e-02f, +6.103844e-02f, +1.481483e-01f, -4.098398e-02f, +1.314381e-01f,
    -9.466548e-02f, +5.988353e-02f, +1.074585e-01f, -3.935166e-02f, -5.716321e-03f, +2.867317e-02f, -3.256314e-01f, -2.640654e-02f,
    -1.055221e-01f, -1.944184e-01f, -2.802782e-01f, -2.269801e-01f, +1.698014e-01f, +3.414210e-01f, +1.744064e-02f, -1.921671e-01f,
    +2.089609e-01f, -4.043361e-01f, +5.303067e-02f, -2.570007e-02f, -5.184522e-02f, +6.700441e-02f, +8.990173e-02f, +7.129065e-02f,
    +7.458264e-02f, -1.006965e-02f, -3.226086e-01f, +1.093785e-01f, -1.859162e-01f, -1.445392e-01f, +1.436289e-01f, +5.635649e-02f,
    -3.193710e-02f, -1.294213e-02f, -9.057238e-02f, +3.375733e-01f, +2.053379e-01f, +1.947504e-01f, +2.052695e-01f, +9.850578e-02f,
    +1.994209e-01f, +7.860577e-02f, -1.044023e-01f, -3.013104e-02f, -1.361142e-02f, -1.510691e-01f, +2.947854e-01f, +7.976644e-02f,
    +4.141950e-02f, +3.258196e-01f, -6.801580e-02f, -3.463985e-01f, -4.515836e-02f, -2.355179e-02f, -1.348798e-01f, -1.785333e-01f,
    +2.327088e-01f, +7.092980e-02f, -1.917862e-01f, -2.925816e-01f, -1.691515e-01f, +4.812863e-02f, -9.280829e-02f, -3.449064e-01f,
    -3.014866e-01f, +3.731675e-02f, +4.285185e-02f, -4.090470e-02f, -2.455697e-01f, +1.256694e-01f, -1.149423e-01f, +2.286588e-02f,
    -8.206203e-02f, -1.050925e-01f, -1.761718e-01f, -4.076628e-01f, +2.504876e-01f, -4.754417e-01f, +2.098033e-01f, +3.342763e-01f,
    +1.509294e-01f, -2.656892e-01f, -4.022767e-01f, -3.305350e-04f, -2.581996e-01f, -1.653816e-02f, -8.443311e-02f, +2.300230e-01f,
    +1.257153e-01f, -1.488116e-03f, +3.986906e-01f, -9.227412e-02f, -4.483853e-01f, +6.561668e-02f, +1.183109e-01f, -6.598943e-02f,
    +3.588003e-01f, -5.895342e-01f, +8.626427e-03f, +2.786177e-02f, +1.161685e-01f, +1.034841e-01f, +4.855979e-02f, +8.078811e-02f,
    -5.100881e-01f, +2.855297e-01f, -1.871790e-01f, -4.919460e-01f, -5.039493e-02f, -9.532672e-02f, +1.417986e-01f, +6.304481e-02f,
    +1.621897e-01f, +2.980972e-01f, +1.828151e-01f, +2.405404e-02f, -7.345151e-02f, -1.081751e-02f, -1.006863e-01f, -6.162884e-01f,
    +6.989484e-02f, -2.017108e-03f, -1.590773e-01f, +7.889894e-02f, +1.690092e-01f, +7.953726e-02f, -1.312131e-02f, -2.329056e-01f,
    -3.611673e-01f, -5.659555e-02f, -2.244615e-01f, +1.995725e-01f, -1.731624e-01f, +2.034834e-01f, +4.020368e-03f, -5.426357e-02f,
    +8.896683e-02f, +6.260627e-02f, +3.170322e-01f, +7.845964e-02f, +6.698371e-01f, +1.602652e-01f, +2.802538e-01f, +1.861563e-01f,
    -2.165749e-02f, +2.498636e-01f, -2.142543e-01f, +1.023785e-01f, +9.829974e-02f, -3.474895e-02f, -2.290051e-01f, +1.094072e-01f,
    -2.490170e-01f, +6.097667e-02f, +2.196563e-01f, -1.782060e-01f, +3.735319e-01f, -8.904417e-02f, -1.803759e-01f, +1.561161e-01f,
    +3.115287e-01f, -6.724181e-01f, +1.735242e-01f, +1.225050e-01f, +1.051626e-01f, -1.920999e-01f, +1.684202e-01f, -2.368337e-01f,
    -3.147790e-01f, +9.584901e-02f, -2.437130e-01f, -1.181519e-01f, +3.274239e-02f, +1.588132e-01f, +8.389197e-02f, +9.789155e-02f,
    +1.790340e-01f, -2.931583e-02f, -5.530652e-02f, -7.585606e-03f, -1.965486e-01f, -2.923068e-01f, -2.585641e-01f, -2.573397e-01f,
    +1.512067e-01f, +1.109234e-01f, +3.866346e-01f, +3.065988e-01f, +4.800279e-02f, -3.453927e-02f, +7.986264e-02f, -6.572998e-02f,
    -4.675580e-01f, -3.865908e-01f, +2.292790e-01f, +1.181348e-02f, +2.677786e-02f, -1.982328e-01f, +1.940122e-02f, +1.916470e-01f,
    -6.904948e-02f, +1.554880e-01f, +2.623615e-01f, -1.931271e-01f, -4.487879e-02f, -2.906133e-01f, -2.472309e-01f, +1.325238e-02f,
    +1.100191e-01f, -1.258321e-01f, -3.259633e-01f, -1.836309e-02f, -2.730488e-01f, +6.240594e-02f, -4.948991e-02f, -1.381111e-01f,
    +1.392298e-01f, +7.056902e-02f, -4.321498e-01f, -1.099890e-01f, +2.494981e-02f, -3.706763e-02f, -2.765301e-01f, +1.057047e-01f,
    -1.771517e-01f, -1.263087e-01f, -4.047038e-01f, -2.408951e-01f, -2.925299e-01f, +1.291326e-01f, -2.134909e-02f, +2.740416e-02f,
    -2.342450e-01f, +1.385778e-02f, +1.388607e-01f, -2.055163e-01f, -4.988212e-01f, -1.057858e-01f, +9.293114e-02f, +1.507620e-02f,
    +8.628999e-02f, +6.494800e-02f, -9.706950e-02f, -2.821144e-01f, -7.736049e-02f, +3.566937e-02f, +1.580008e-01f, -1.002153e-01f,
    +1.112198e-01f, -2.757232e-01f, -3.457492e-03f, -1.634048e-01f, -2.656587e-01f, +1.013323e-01f, -1.628602e-01f, -1.504234e-02f,
    +1.977797e-01f, -9.632944e-02f, +4.327333e-02f, +1.109582e-01f, +2.906751e-01f, -2.318258e-01f, +2.209193e-01f, +1.089170e-01f,
    -5.263517e-02f, +6.315352e-02f, -2.389442e-01f, -3.603327e-02f, -1.239458e-01f, +1.450468e-01f, +2.331152e-02f, +1.267221e-02f,
    +3.587612e-02f, +3.367509e-02f, +4.258012e-01f, +7.162879e-02f, +3.844917e-02f, +1.576482e-01f, -1.047715e-01f, -4.374751e-01f,
    +1.531379e-01f, +7.753661e-02f, -1.369073e-02f, +4.108534e-03f, +1.612213e-01f, -1.463273e-01f, -3.509641e-02f, +1.804095e-01f,
    -1.518438e-01f, +4.191844e-01f, +1.133726e-02f, -2.566048e-01f, +4.824621e-02f, +5.524530e-02f, +8.112338e-02f, +9.384626e-02f,
    +1.538838e-01f, -1.163274e-01f, +1.400876e-01f, +1.572245e-02f, -8.152647e-02f, +2.396655e-01f, -2.144484e-01f, -1.308616e-01f,
    -1.337648e-01f, -1.814138e-01f, +1.813191e-01f, +5.345333e-02f, +3.684666e-01f, -8.333801e-02f, -1.063421e-03f, +1.250597e-01f,
    -2.840773e-01f, +1.780584e-01f, +1.009052e-01f, +1.117201e-01f, +7.404838e-02f, -3.216494e-02f, +2.012039e-01f, +9.463934e-03f,
    +4.182413e-01f, -1.403942e-01f, +1.543469e-01f, -1.484334e-02f, +9.660845e-02f, +3.758987e-01f, -1.079329e-01f, +1.065908e-01f,
    -1.835888e-01f, -2.657574e-02f, +4.249578e-01f, -2.324315e-01f, -2.679870e-01f, +3.669182e-01f, +3.105179e-02f, -2.445870e-02f,
    -3.237469e-01f, -3.953214e-01f, +4.708075e-01f, -4.143074e-01f, +5.326102e-02f, -1.724776e-01f, +1.922460e-02f, -4.568018e-03f,
    +3.276081e-01f, +5.080859e-02f, -1.357808e-01f, -1.233683e-01f, -5.243579e-02f, +4.605872e-02f, +1.086841e-01f, -8.865869e-02f,
    -1.301588e-01f, +2.862615e-01f, +3.903375e-01f, +1.950708e-01f, +1.829472e-01f, +1.104462e-01f, +2.908552e-01f, +9.093462e-02f,
    +6.274025e-02f, -1.657614e-01f, +3.127475e-01f, +1.329127e-01f, +3.941811e-01f, +1.256724e-01f, +1.144505e-01f, +9.394512e-02f,
    -1.852185e-01f, +3.638851e-01f, +3.970896e-02f, +2.530099e-01f, +6.235129e-02f, -1.216324e-01f, +2.034580e-01f, -3.914244e-02f,
    +3.999172e-01f, +6.131386e-02f, -6.502222e-02f, +1.776837e-01f, +2.098010e-01f, +1.835206e-01f, +2.023661e-01f, -3.754747e-01f,
    +5.361326e-02f, -1.548069e-01f, -1.975122e-01f, -5.561064e-02f, +4.560094e-01f, -5.777551e-01f, +3.040744e-01f, +4.294527e-02f,
    +1.222427e-01f, +2.949077e-01f, -1.374204e-01f, -4.891399e-02f, -1.041068e-01f, -5.606306e-01f, +1.897945e-01f, -4.276234e-01f,
    +7.429717e-02f, +4.368128e-02f, -1.019488e+00f, -4.355489e-01f, -1.399671e-01f, -9.015965e-02f, +1.249618e-01f, -1.396257e-01f,
    -1.108492e-01f, +3.587332e-02f, +2.533387e-01f, -3.689919e-03f, +1.002966e-01f, -4.659540e-01f, +7.091568e-02f, +4.760679e-01f,
    -5.181524e-02f, -6.266890e-02f, +1.653516e-02f, +1.346189e-01f, +2.447518e-01f, +1.989048e-01f, -3.447978e-01f, +4.674779e-02f,
    -2.687173e-01f, +3.145695e-01f, -7.391421e-02f, -4.179972e-01f, -2.380716e-01f, +1.731844e-01f, -6.937740e-01f, +3.177905e-01f,
    -9.360962e-02f, +5.866880e-03f, +4.456673e-02f, -1.291215e-01f, +9.646556e-02f, +8.391049e-02f, +1.741809e-01f, +1.647392e-01f,
    -8.956172e-02f, -4.641320e-02f, +1.356495e-01f, +2.660615e-01f, +1.785766e-01f, -6.896315e-02f, +1.802844e-01f, -2.872985e-02f,
    +2.424967e-01f, -1.454231e-01f, -1.677638e-01f, +3.650672e-02f, -1.862240e-01f, +5.159066e-01f, +1.667603e-01f, +1.157266e-01f,
    +1.678796e-02f, -8.064211e-02f, +6.221918e-02f, -1.694164e-01f, +2.456101e-01f, +1.720958e-01f, +3.507527e-03f, +2.615666e-01f,
    -2.056693e-02f, -2.195779e-01f, +1.699122e-01f, +8.062345e-02f, +2.509544e-01f, +3.115594e-02f, -2.751474e-01f, +8.392347e-02f,
    +1.516493e-01f, +1.543736e-02f, +5.538816e-02f, -3.534527e-01f, +1.820657e-01f, +2.363965e-02f, +3.669279e-01f, -1.627619e-01f,
    -1.336159e-01f, -5.216888e-02f, +4.079712e-01f, +3.453010e-01f, +1.875478e-01f, -1.164148e-02f, +2.067681e-01f, -3.342998e-01f,
    -1.321511e-01f, +1.252294e-01f, -2.903600e-01f, +1.494187e-01f, +4.122217e-01f, +2.239057e-01f, +2.067922e-01f, +4.736046e-01f,
    +1.172559e-01f, +3.559451e-01f, +1.847538e-01f, +1.636775e-01f, -4.008325e-01f, -5.196815e-01f, -7.181882e-02f, -2.944106e-01f,
    +4.607665e-01f, -2.882040e-01f, +2.968361e-01f, +3.812579e-01f, +1.277394e-01f, -4.793643e-01f, +8.211085e-02f, -1.900355e-01f,
    +5.536940e-02f, -1.952628e-01f, -8.417059e-02f, +1.110255e-01f, -1.714461e-01f, +1.743107e-01f, -4.048225e-02f, +1.157550e-01f,
    +1.408965e-01f, -1.192804e-01f, +8.668677e-02f, +1.735665e-02f, -3.848468e-02f, +1.144011e-01f, -3.555230e-01f, +2.597362e-01f,
    -5.038829e-02f, -1.281995e-02f, +7.271645e-02f, +2.131922e-01f, +1.684618e-01f, +2.847106e-01f, -5.429230e-02f, +1.123837e-01f,
    +8.219595e-02f, -1.077601e-01f, +8.833337e-02f, -1.910150e-01f, -2.309567e-01f, +1.016695e-02f, -2.362310e-01f, -4.299234e-01f,
    +8.963828e-02f, -1.267717e-01f, +5.448884e-01f, -2.077877e-02f, +1.522779e-02f, -1.780661e-01f, +4.597787e-03f, -2.226099e-01f,
    -1.219903e-01f, -4.180428e-02f, -1.968163e-02f, +5.324732e-02f, +9.249105e-02f, +3.415894e-01f, +1.975894e-01f, +9.727481e-02f,
    -1.117712e-01f, +4.466651e-02f, +5.384390e-01f, +6.532332e-01f, -7.809495e-02f, -2.597049e-01f, -4.070887e-02f, -1.246752e-01f,
    +1.928811e-01f, -1.727131e-01f, -2.431855e-01f, -3.514549e-01f, -2.801234e-02f, -1.297115e-01f, -2.294106e-01f, -1.900819e-01f,
    -2.141728e-02f, -1.052388e-01f, +1.115964e-01f, -3.922792e-02f, -9.454745e-02f, +6.422140e-02f, -2.394168e-02f, -7.131830e-02f,
    +8.419101e-02f, -7.254836e-02f, +1.139134e-03f, -2.411442e-02f, -8.034064e-02f, -1.040653e-01f, -9.305057e-02f, +2.214165e-02f,
    -6.320177e-02f, +2.184625e-02f, -3.010839e-03f, +2.661763e-02f, +4.659127e-02f, -8.829999e-02f, -8.880867e-02f, +1.018281e-01f,
    +1.975198e-02f, -8.168280e-03f, -1.097317e-02f, -1.578087e-02f, +5.554825e-02f, -5.384932e-02f, -6.896447e-02f, -9.452131e-02f,
    -7.813111e-03f, +4.739976e-02f, +4.116654e-03f, -1.062702e-01f, -5.855036e-02f, -1.332490e-02f, -1.736943e-02f, -5.156979e-03f,
    -4.950365e-02f, +5.811186e-02f, -6.506717e-02f, +3.695987e-02f, -1.174411e-01f, +8.021508e-02f, -8.773185e-02f, -1.390316e-02f,
    -8.488575e-02f, -1.221943e-01f, +3.863773e-02f, -6.411445e-02f, +3.156263e-02f, -4.169452e-02f, -3.734964e-02f, +9.500834e-02f,
    -1.160249e-03f, -6.289564e-02f, -8.985771e-02f, +8.845118e-02f, -8.733684e-02f, -8.187091e-02f, +4.884103e-02f, -3.873563e-02f,
    -1.723308e-02f, -1.740614e-01f, -1.428515e-01f, -2.815037e-01f, +8.917476e-02f, +2.256442e-01f, -1.602118e-01f, +1.134736e-01f,
    -2.958741e-01f, -1.444720e-01f, +1.110963e-01f, -3.005491e-01f, -1.476513e-01f, -2.927737e-02f, -3.970860e-02f, -2.742440e-01f,
    +3.509100e-02f, -9.432160e-02f, +2.548585e-01f, -3.742776e-01f, +2.526765e-01f, -1.714467e-01f, -1.325512e-01f, -1.514451e-01f,
    -2.258603e-02f, -2.287048e-02f, -5.547741e-02f, -1.838486e-01f, -5.028711e-01f, +1.270780e-01f, +1.628536e-02f, -1.190611e-01f,
    -8.942508e-02f, +7.462467e-02f, +2.922222e-01f, +2.676913e-01f, +6.985986e-02f, -1.313494e-01f, +1.605048e-01f, -2.905243e-02f,
    -5.637876e-02f, -3.982505e-01f, -5.621580e-02f, +4.420297e-02f, -5.963505e-02f, -1.592432e-01f, +1.723797e-01f, +4.841505e-02f,
    -1.323896e-01f, +2.817433e-01f, -7.644257e-02f, +2.184217e-01f, +9.369224e-02f, -5.192153e-02f, +1.038723e-02f, -5.606291e-01f,
    +2.466584e-01f, -2.041106e-01f, -6.670036e-01f, +7.777689e-02f, -2.341180e-01f, +2.654129e-02f, +1.965625e-01f, -3.050502e-01f,
    -1.731199e-01f, +3.081262e-01f, +8.479727e-02f, +8.751380e-02f, +3.505508e-01f, +4.536675e-02f, +2.568990e-01f, -4.633233e-02f,
    -4.266389e-04f, +2.199307e-01f, -3.138647e-01f, +3.935459e-01f, -5.557401e-02f, -4.508082e-02f, -1.619739e-01f, -2.497253e-01f,
    +1.074448e-01f, +3.294423e-01f, -1.717883e-01f, +7.310735e-02f, +6.728087e-02f, -7.986649e-02f, +2.148017e-01f, +8.651188e-02f,
    +1.003739e-01f, +2.545358e-02f, +2.183980e-01f, +1.371820e-01f, -3.298085e-02f, +8.262730e-02f, +7.091886e-02f, +1.085465e-01f,
    -3.272950e-01f, +2.284362e-01f, -1.045044e-01f, -1.538868e-01f, -2.574062e-02f, +2.716322e-01f, -7.310653e-03f, +1.802190e-01f,
    -1.417135e-02f, +3.093808e-01f, -1.152738e-01f, +2.432767e-01f, -1.248978e-02f, +7.368754e-02f, -1.010751e-01f, +3.027234e-01f,
    +1.567897e-01f, +4.129714e-02f, -1.606675e-01f, -1.215067e-01f, +8.613866e-02f, +7.912473e-02f, +1.019446e-01f, +8.451583e-02f,
    -7.265421e-01f, -1.740745e-01f, +1.869437e-01f, +1.159986e-01f, +2.276568e-01f, +8.821605e-02f, +2.310598e-01f, +2.416323e-01f,
    -7.754839e-02f, -1.956999e-01f, +7.109126e-02f, -6.024767e-01f, -1.743178e-02f, +9.973491e-02f, -3.885361e-01f, +8.701210e-02f,
    -5.083705e-01f, -3.659774e-01f, +1.151691e-01f, -5.504858e-01f, +1.732791e-01f, +6.729224e-02f, +1.046177e-02f, -3.334598e-02f,
    -1.530556e-01f, -2.580387e-01f, -8.337686e-02f, -2.308337e-01f, +4.013081e-02f, -1.934692e-01f, +6.899215e-02f, -2.464836e-01f,
    +8.811669e-02f, +2.685753e-01f, -2.277146e-01f, -9.317327e-02f, -5.095727e-02f, +9.021598e-02f, -2.335308e-01f, -3.443571e-01f,
    -1.558749e-01f, -9.478063e-03f, +5.855332e-02f, +3.889526e-01f, +8.447091e-02f, -3.409218e-01f, +2.088610e-01f, -1.996316e-02f,
    -2.460767e-01f, -3.849151e-01f, +1.500668e-01f, +3.284211e-02f, +1.022949e-02f, -4.584143e-01f, +2.282436e-01f, +1.730678e-01f,
    -4.978282e-02f, +1.763391e-01f, +2.561059e-02f, -2.584729e-01f, -4.851764e-02f, -6.617743e-02f, -1.417623e-02f, -2.730117e-01f,
    +4.570929e-01f, -1.614021e-01f, -3.491516e-01f, -1.605667e-01f, -3.986029e-01f, +1.805068e-01f, -3.047510e-01f, -2.897153e-01f,
    -2.444208e-01f, +3.274815e-01f, -1.521885e-02f, +2.258006e-02f, +2.516625e-02f, -1.885521e-02f, -4.564847e-02f, +2.789724e-02f,
    +8.423037e-02f, -5.271951e-02f, +3.036599e-01f, +1.173065e-01f, +2.325076e-01f, +1.910657e-04f, +4.367835e-02f, +3.232359e-01f,
    +1.919908e-01f, +1.642811e-02f, -3.287591e-01f, -1.425336e-01f, -3.945584e-02f, -7.788029e-02f, +6.910425e-02f, +1.048294e-01f,
    -7.943437e-02f, +1.141178e-01f, +1.931835e-01f, +1.420072e-01f, +3.952223e-03f, +1.130119e-01f, +1.625957e-01f, -7.456684e-03f,
    +1.286503e-01f, -1.342948e-02f, -2.440022e-01f, +4.050395e-01f, +1.597467e-01f, +5.057419e-02f, -3.318165e-03f, +2.676728e-02f,
    +6.525271e-02f, +3.555599e-01f, -1.807268e-01f, +8.586954e-02f, -5.259205e-02f, -3.118628e-01f, +2.766105e-01f, +1.978700e-01f,
    +2.287522e-01f, +7.846402e-02f, -9.457094e-02f, -9.112655e-02f, -9.569727e-02f, +2.639076e-01f, -1.800735e-01f, -8.134613e-02f,
    +5.785087e-01f, -5.173124e-02f, -9.850143e-02f, -6.283775e-04f, -1.108346e-01f, -1.369750e-02f, +3.308610e-02f, -4.140936e-02f,
    +4.692472e-04f, -1.156047e-01f, +5.765190e-02f, +1.512080e-01f, -3.044943e-02f, +2.307786e-01f, +7.539439e-02f, +5.976113e-02f,
    -2.310345e-02f, +2.007107e-01f, +3.098191e-01f, -9.317157e-02f, -6.494913e-02f, +5.946060e-02f, -2.567393e-02f, -1.803527e-01f,
    +6.453291e-02f, -2.494407e-02f, +1.966468e-01f, +1.547932e-01f, +4.305322e-02f, +1.719459e-01f, -8.655325e-02f, -1.062129e-01f,
    +6.936797e-02f, +8.145456e-02f, +5.076236e-02f, -1.231123e-01f, +1.770848e-01f, -9.562413e-02f, +1.347649e-02f, -2.758299e-01f,
    +1.721033e-01f, +1.659492e-01f, +3.080073e-01f, -2.402267e-01f, +1.072328e-01f, -8.971390e-02f, -3.823335e-03f, -1.307497e-01f,
    +3.047705e-01f, -2.233950e-01f, -3.982014e-02f, +5.634046e-02f, +5.094298e-02f, +5.595271e-03f, -1.176397e-02f, -1.714017e-01f,
    +2.219783e-01f, -1.289079e-01f, +4.206020e-01f, +2.449821e-01f, +4.116409e-01f, -1.217407e-01f, -5.927020e-01f, -9.248397e-02f,
    +1.066301e-02f, +1.058661e-01f, -9.566382e-02f, +2.218343e-01f, +1.864988e-01f, -2.498302e-01f, +1.850975e-01f, -1.576932e-01f,
    +2.830687e-01f, -3.651061e-02f, -2.418016e-01f, -5.317180e-03f, -8.111552e-02f, -2.821009e-01f, +2.981449e-01f, +6.926940e-02f,
    +8.458246e-02f, -4.749509e-02f, +1.003345e-02f, -8.724727e-02f, -2.953862e-01f, -1.401400e-02f, +7.239796e-02f, -1.395161e-03f,
    +9.540688e-02f, -4.178370e-03f, +9.030673e-02f, +3.688395e-02f, -5.230050e-02f, +1.319217e-01f, -1.301510e-02f, +5.581051e-02f,
    -1.312716e-01f, -1.434994e-01f, +1.253380e-01f, -2.711401e-02f, +2.750267e-01f, +1.243786e-01f, -1.894875e-01f, +2.811364e-01f,
    +1.914412e-01f, +2.031559e-01f, -5.352103e-02f, +1.375071e-02f, -2.019070e-01f, +1.363056e-01f, -1.114068e-01f, -1.024711e-01f,
    -3.321825e-02f, -2.662412e-01f, +5.693817e-02f, +3.361517e-02f, -8.896652e-02f, +2.440780e-01f, -1.643339e-01f, +1.980520e-03f,
    +2.537934e-02f, +7.209381e-03f, +2.974435e-01f, +9.141368e-02f, +3.551665e-01f, -6.801418e-02f, +2.558572e-01f, +3.153964e-01f,
    -2.507699e-01f, +1.525986e-01f, +8.065622e-02f, +2.762142e-01f, +1.460706e-01f, -6.592452e-02f, +1.229716e-01f, +2.260393e-01f,
    -5.122026e-02f, +1.125280e-02f, -2.472001e-02f, -1.364585e-01f, +4.135718e-02f, +4.850657e-02f, +5.949869e-03f, +5.492364e-02f,
    -1.029289e-01f, +3.500663e-02f, -6.416420e-02f, +1.049400e-02f, +6.147234e-02f, -1.223292e-01f, -1.369267e-01f, +4.890952e-02f,
    +1.146293e-01f, -8.570805e-02f, -8.086951e-02f, +1.855829e-02f, -9.779698e-02f, -9.218362e-02f, +7.042857e-02f, +9.182616e-02f,
    -4.510449e-02f, -1.066634e-02f, -3.746258e-02f, -3.875905e-02f, +8.905196e-03f, +9.371734e-02f, -6.229229e-02f, -7.578548e-02f,
    +7.117573e-02f, +3.115392e-02f, -9.278706e-02f, -1.961962e-02f, -1.241508e-01f, -1.294827e-02f, -1.086243e-01f, -8.370376e-02f,
    -4.648143e-03f, -8.198500e-02f, -1.150818e-01f, +4.488678e-02f, -1.245820e-02f, -6.343705e-02f, -1.209664e-01f, -1.316695e-01f,
    +2.066844e-04f, +2.392084e-02f, -4.860437e-02f, +8.285717e-02f, -5.509554e-02f, -1.338838e-01f, -1.072133e-01f, -1.137321e-01f,
    -1.273436e-01f, -6.021489e-02f, -9.454846e-03f, -3.894369e-03f, -4.946222e-02f, +3.822252e-02f, -8.611212e-02f, +4.433012e-02f,
    -8.261950e-02f, -1.709497e-01f, +1.788536e-01f, +8.406991e-02f, -2.876165e-01f, +2.333258e-01f, -2.621148e-01f, +1.186745e-03f,
    +1.212214e-01f, -7.444075e-02f, +1.721554e-01f, -1.602234e-01f, +1.173625e-01f, +5.978759e-02f, -5.196695e-02f, +2.372149e-01f,
    +1.589171e-02f, -1.451541e-01f, +2.522457e-02f, +1.356364e-02f, +1.773641e-01f, +7.231463e-02f, +2.855874e-02f, +1.406420e-02f,
    +1.092357e-01f, +1.668648e-01f, +1.404524e-01f, +2.028055e-02f, -1.647951e-01f, -1.075786e-01f, +4.622235e-02f, -3.114348e-01f,
    +8.718517e-02f, -1.210387e-01f, +2.078036e-01f, +1.435716e-01f, -2.441332e-02f, -1.192568e-01f, +1.106177e-01f, +1.006368e-01f,
    +1.214724e-01f, -7.082384e-02f, -1.155848e-01f, -4.028187e-02f, +1.996454e-01f, +2.265021e-02f, +3.011796e-01f, +4.198983e-02f,
    +1.463661e-01f, +6.688377e-02f, -5.158678e-02f, +2.120758e-01f, -2.981245e-01f, -4.060199e-02f, -1.795419e-01f, -1.490495e-01f,
    +5.323169e-01f, +4.180775e-03f, -1.006333e-01f, -1.131949e-02f, -4.025598e-02f, -2.586151e-02f, -1.383196e-01f, -2.043818e-01f,
    -2.016077e-02f, -1.348011e-01f, -1.108339e-01f, +7.566330e-02f, +6.367824e-02f, -7.167073e-02f, +7.829367e-02f, +2.166022e-02f,
    -1.283154e-02f, +3.577187e-02f, -7.620752e-02f, -1.464209e-01f, +7.765796e-02f, -5.858725e-02f, +4.611568e-02f, -1.191386e-01f,
    -3.522775e-02f, -1.160580e-02f, -7.656176e-02f, -2.011487e-02f, -1.324631e-01f, -7.439896e-02f, -2.911528e-02f, -4.799497e-02f,
    +1.779686e-02f, -6.608909e-02f, +1.949915e-02f, +2.401639e-03f, -5.743798e-04f, +4.327103e-02f, -6.905425e-02f, +1.943677e-02f,
    -5.692801e-02f, -1.440717e-01f, -3.089715e-02f, -1.951024e-02f, -1.496181e-02f, +8.690886e-03f, +1.855448e-02f, -1.152815e-01f,
    +6.113849e-03f, -4.725437e-02f, -5.118961e-02f, -3.753882e-02f, +1.740094e-02f, -1.191829e-01f, +2.071603e-02f, -6.476729e-03f,
    +1.951227e-02f, -1.637879e-01f, +3.833560e-02f, -1.199059e-01f, +7.002673e-02f, -2.994385e-03f, -1.231072e-01f, +8.146793e-02f,
    -1.336812e-01f, -1.586377e-01f, +7.971138e-03f, -6.907923e-02f, +5.262930e-02f, -1.086676e-01f, +4.256296e-02f, +7.551120e-02f,
    -1.824604e-01f, -9.906346e-02f, -6.695631e-02f, -2.307062e-01f, -7.545180e-02f, +4.990128e-02f, -2.873300e-02f, +7.344704e-02f,
    -1.575141e-01f, +6.246739e-03f, -2.606886e-02f, -2.681579e-02f, +5.195589e-03f, +3.469123e-02f, -6.003514e-02f, +9.428157e-02f,
    +6.853359e-02f, -5.553557e-03f, +3.992734e-02f, -1.072799e-01f, +1.502451e-01f, -9.640800e-02f, -6.058112e-03f, +1.226707e-01f,
    -3.021191e-02f, +1.962717e-02f, -4.130062e-02f, -4.647892e-02f, -1.604086e-01f, -5.225609e-02f, -1.410754e-01f, -2.333737e-02f,
    -1.778794e-01f, -1.306518e-01f, -1.066466e-01f, -2.033786e-02f, +5.958948e-02f, -1.476609e-01f, +5.660554e-03f, +7.658841e-02f,
    -1.551752e-01f, -9.497539e-02f, -1.332905e-01f, -4.201464e-02f, -9.636641e-02f, -1.821096e-01f, +3.091579e-03f, +3.261751e-02f,
    -2.804954e-03f, +3.774723e-02f, -1.446952e-02f, -7.761689e-02f, -1.846647e-01f, -1.002520e-01f, +2.166454e-02f, -3.462953e-01f,
    +2.037820e-02f, -7.776157e-03f, -1.601503e-01f, -1.789951e-01f, -2.718111e-01f, +7.410777e-02f, -9.690873e-02f, +1.459396e-02f,
    -8.652949e-02f, -7.496104e-03f, -8.635706e-02f, +1.240833e-01f, +1.482216e-02f, -7.376082e-02f, +4.841982e-02f, +1.988849e-02f,
    -1.053586e-01f, -1.214984e-01f, +1.037153e-01f, +4.826337e-04f, +2.490726e-02f, -7.547425e-02f, -5.338886e-02f, -1.117492e-01f,
    +5.543716e-02f, -6.151010e-02f, -1.144173e-01f, -8.747084e-02f, -7.186618e-02f, +1.190518e-01f, -9.600292e-02f, -5.505429e-02f,
    +6.165253e-02f, +9.405389e-02f, +9.538086e-02f, -4.147273e-02f, +2.179264e-02f, -5.910012e-02f, -1.222673e-01f, -8.818865e-03f,
    -1.082338e-01f, -3.844234e-02f, +6.712958e-02f, +7.947539e-02f, +5.297235e-02f, +1.221344e-01f, -1.220082e-01f, -3.007218e-03f,
    +1.098528e-01f, +3.645475e-02f, -7.047948e-02f, +1.165170e-01f, -7.099718e-02f, -8.287600e-02f, -8.148417e-02f, -2.020241e-02f,
    -1.169353e-01f, -1.370537e-02f, -6.119835e-02f, +1.214421e-02f, +1.891024e-02f, -6.325425e-02f, -2.946483e-02f, -1.080036e-01f,
    -5.563539e-02f, -5.742456e-02f, +7.596079e-02f, -3.403835e-02f, +1.019940e-01f, +6.017053e-02f, +1.114309e-01f, -1.178413e-01f,
    -4.350368e-02f, -1.182362e-01f, -2.900468e-01f, -1.443399e-01f, +3.822520e-03f, +1.604561e-01f, +1.508418e-01f, +4.670952e-02f,
    -3.725485e-01f, +6.540892e-02f, -9.184796e-01f, +2.809842e-02f, -6.243386e-01f, +1.956241e-01f, -4.622675e-01f, -2.337086e-01f,
    +6.685615e-03f, +9.325353e-02f, +3.884138e-01f, +1.998508e-01f, +2.418445e-01f, +9.905513e-02f, -7.827441e-02f, -2.283062e-01f,
    +1.404305e-01f, +8.940309e-02f, -1.632535e-01f, +9.865949e-02f, -4.802446e-02f, -8.410866e-02f, -5.596762e-03f, +2.530646e-01f,
    -4.929256e-01f, +3.344266e-01f, +2.023794e-01f, -9.957295e-02f, +1.073317e-01f, +1.323951e-01f, -1.159222e-01f, -7.186843e-02f,
    +2.216423e-01f, -3.016762e-01f, -4.462733e-02f, +1.443682e-01f, +1.145082e-01f, +4.229093e-01f, +9.052623e-03f, -1.626445e-01f,
    -4.610024e-01f, +7.283309e-02f, +2.930942e-01f, +1.396306e-02f, +3.369162e-01f, +7.531490e-02f, -4.312067e-02f, -4.635271e-01f,
    -1.138737e-01f, -3.824375e-01f, -4.952144e-01f, +3.148958e-02f, +2.792273e-02f, -3.010615e-02f, -3.559295e-01f, +1.346657e-02f,
    +8.611611e-02f, -3.293474e-01f, +1.719825e-01f, +1.054154e-01f, +7.487970e-02f, +9.938939e-02f, +5.164286e-02f, +1.068879e-01f,
    -1.348639e-01f, -1.378773e-01f, +2.901151e-01f, +2.006225e-01f, +4.125430e-02f, +1.209417e-01f, -2.556517e-01f, +3.784927e-02f,
    -6.634753e-02f, -2.118135e-01f, +1.250104e-01f, +3.641833e-01f, -1.714367e-01f, +4.298206e-02f, +4.993207e-02f, +4.764803e-01f,
    +1.778260e-01f, +6.782813e-02f, +1.041494e-01f, -2.706526e-01f, -4.106042e-01f, +1.761868e-01f, +7.277976e-02f, -2.570481e-01f,
    -4.413396e-02f, +2.066486e-01f, -9.580271e-02f, -2.735430e-01f, -2.331174e-01f, +9.361092e-02f, +1.847738e-01f, -1.075276e-02f,
    -2.161658e-01f, -9.243914e-02f, +1.136462e-01f, -9.469601e-02f, -3.379217e-01f, -4.640045e-01f, +2.148995e-01f, +1.054425e-01f,
    -3.153101e-02f, +1.632683e-01f, -1.865451e-01f, +2.239144e-02f, +3.818664e-02f, +5.255804e-02f, -5.708262e-02f, -4.995308e-01f,
    -1.161522e-01f, +1.125057e-01f, -2.652463e-01f, -2.079575e-01f, -4.236435e-02f, +9.662384e-03f, -5.823915e-02f, +2.041167e-01f,
    +1.177828e-01f, +5.990716e-03f, +2.162341e-01f, +2.985184e-02f, -1.695104e-01f, +2.797044e-01f, -2.567963e-01f, +5.552156e-02f,
    +1.233769e-01f, +3.297831e-02f, +3.235864e-01f, -2.561368e-02f, +5.315402e-02f, +9.140760e-02f, +7.295020e-02f, +6.701865e-02f,
    -2.057480e-01f, -6.362981e-02f, +1.101638e-01f, +3.480454e-01f, -4.424869e-02f, -2.307160e-02f, -1.413390e-01f, -2.112022e-01f,
    +8.477620e-02f, -1.191694e-01f, +1.034559e-01f, +3.502097e-02f, -2.832611e-01f, +1.978963e-01f, -4.156361e-02f, -1.623166e-01f,
    -3.644338e-02f, -1.338077e-01f, +1.807568e-01f, +1.560357e-01f, +1.455834e-01f, -2.994588e-02f, +4.638997e-02f, +1.172161e-01f,
    -1.839337e-01f, -7.563100e-02f, +9.067272e-02f, +7.010872e-02f, +3.397627e-01f, -2.550611e-01f, +3.866677e-01f, -2.004169e-01f,
    +1.388798e-01f, -6.424410e-02f, -1.609756e-01f, +4.104416e-01f, -2.603699e-01f, -1.476622e-01f, +1.130205e-01f, -3.880644e-01f,
    +5.867915e-01f, -1.726869e-01f, -3.352270e-01f, +5.017108e-02f, +7.301261e-02f, -2.051251e-01f, +7.788546e-02f, -2.756517e-01f,
    -2.897844e-02f, +9.772114e-03f, -2.283426e-01f, +7.308459e-02f, -2.593624e-01f, +4.157501e-01f, -3.399847e-02f, -1.667438e-01f,
    +9.621263e-02f, +6.024288e-02f, -3.524683e-01f, -2.375159e-01f, +1.846698e-01f, +6.518143e-02f, +1.768998e-01f, +4.808459e-02f,
    -1.851495e-02f, -1.800644e-01f, +3.400848e-01f, +3.739223e-02f, +1.060193e-01f, +7.800864e-02f, -2.095623e-01f, -1.363584e-02f,
    +1.221201e-01f, -6.071623e-02f, +3.685240e-01f, -5.493825e-02f, +8.516531e-02f, -2.312064e-01f, +6.273502e-02f, -1.851616e-02f,
    +1.931283e-01f, -3.513182e-01f, +2.724303e-01f, -2.022568e-01f, +1.659191e-01f, -1.222273e-01f, +1.498892e-01f, -5.131297e-02f,
    +2.956412e-02f, -1.175479e-01f, +3.116838e-02f, -1.284332e-01f, +9.044175e-02f, +3.428493e-01f, -2.933494e-01f, -1.248403e-01f,
    +2.051855e-01f, +1.244285e-01f, +1.280557e-01f, +1.741206e-01f, +4.081840e-01f, -2.372715e-01f, -2.259155e-01f, -3.350748e-01f,
    +4.556041e-02f, +6.450662e-02f, +3.097606e-02f, +4.187182e-01f, +8.932834e-02f, -4.413603e-02f, -7.794716e-02f, -2.041015e-01f,
    -8.491508e-03f, -1.601600e-01f, -1.182391e-02f, -1.655965e-01f, -2.125329e-03f, +1.640853e-01f, -1.446349e-01f, +8.955102e-02f,
    -1.950486e-01f, -2.151494e-01f, -2.340741e-02f, -2.379455e-01f, -2.480302e-01f, -1.949220e-02f, -1.748734e-01f, -5.489002e-02f,
    -2.915293e-01f, -2.509443e-01f, +1.487922e-01f, +4.459517e-02f, -1.168567e-02f, +6.202359e-02f, +4.179259e-02f, -3.339740e-02f,
    +3.176423e-02f, -1.533983e-02f, +5.931047e-02f, -2.520194e-02f, -4.377203e-02f, +1.969948e-02f, -2.265313e-02f, -9.151199e-02f,
    -2.945422e-01f, -1.274030e-01f, +9.151815e-03f, +1.591408e-01f, +8.921010e-02f, -9.332207e-02f, +2.736085e-03f, -7.575712e-02f,
    +1.182308e-02f, -1.823654e-01f, -3.424367e-02f, +3.934530e-02f, +1.262992e-01f, -1.243953e-01f, -3.422865e-02f, -1.087484e-01f,
    -3.024694e-01f, +2.333272e-01f, -2.530619e-01f, -6.764711e-03f, -2.825779e-02f, -1.113182e-01f, +9.485254e-03f, -2.627023e-01f,
    +3.896595e-01f, -1.015252e-01f, -1.731050e-01f, -7.171138e-02f, -1.827994e-01f, -1.136213e-02f, +3.875491e-01f, -1.226542e-01f,
    -2.558175e-01f, -1.046963e-01f, +6.473957e-02f, +5.165921e-02f, +1.008262e-01f, -6.638841e-02f, +4.523320e-02f, -1.949764e-02f,
    -3.549334e-02f, -2.004442e-02f, +4.357519e-02f, -7.815350e-02f, +1.099629e-01f, -3.081848e-01f, -3.200730e-01f, +1.693208e-01f,
    +8.938296e-02f, +3.067810e-02f, -1.501677e-01f, +4.473575e-02f, +1.024316e-01f, +4.946693e-02f, +1.085488e-01f, -4.896513e-02f,
    -3.200842e-02f, -1.152635e-01f, +2.198372e-01f, -1.730498e-01f, -6.888878e-03f, -1.186206e-01f, -3.277817e-01f, -2.370339e-01f,
    -2.970116e-01f, -5.601163e-02f, -1.268882e-01f, -5.422574e-01f, -4.722895e-01f, -1.359715e-01f, +1.633882e-01f, +8.337665e-02f,
    -1.129142e-01f, -1.450535e-01f, +1.120946e-01f, -9.118818e-02f, -2.074421e-01f, -2.559223e-01f, +3.003814e-02f, +3.996398e-02f,
    +2.695915e-02f, +1.410692e-01f, -8.269289e-02f, -3.371587e-01f, -4.402477e-02f, +1.014754e-02f, +1.276686e-01f, -1.747547e-01f,
    -1.623481e-03f, -3.273414e-01f, +2.015564e-03f, -4.404690e-01f, -7.647046e-02f, -5.279714e-03f, -2.664096e-02f, +1.428171e-01f,
    -1.014305e-01f, +8.938205e-02f, -6.938857e-02f, -9.306143e-02f, -9.927213e-02f, -6.584623e-02f, -3.480314e-02f, +1.877142e-02f,
    +6.601493e-02f, -2.475668e-02f, -1.125266e-01f, -2.228794e-02f, +7.311706e-02f, -1.028307e-01f, +7.104735e-02f, -1.073323e-02f,
    -6.248458e-02f, -1.519769e-02f, -9.402241e-02f, -1.173726e-01f, -1.028833e-01f, +4.327297e-04f, +2.178674e-02f, -3.595594e-02f,
    -5.594732e-02f, +6.437784e-02f, +8.818832e-02f, -6.707540e-02f, -9.475453e-02f, +3.632919e-03f, -6.819047e-02f, +4.137029e-02f,
    -1.160127e-01f, -6.210602e-02f, -3.527479e-02f, +4.795349e-02f, -1.182759e-01f, +9.869026e-02f, -2.994512e-02f, -5.625221e-02f,
    +3.670462e-02f, -9.400950e-02f, -9.634928e-02f, -7.178349e-02f, -4.282467e-02f, +1.191658e-01f, +3.257433e-02f, +5.789000e-02f,
    +2.935742e-02f, +7.318945e-02f, +6.840532e-02f, -6.286716e-02f, -9.724014e-02f, +7.484453e-02f, -3.773791e-02f, -6.713245e-02f,
    -9.238902e-02f, -8.832797e-02f, +1.039496e-01f, -7.351731e-02f, +6.029189e-02f, +7.698357e-03f, +5.980907e-02f, -4.298985e-04f,
    +2.530552e-03f, -1.860715e-01f, +3.036193e-01f, -4.004097e-01f, +2.528575e-01f, -1.077890e-01f, -1.808807e-01f, +4.181058e-02f,
    -4.572341e-01f, -2.906708e-01f, +5.892443e-02f, -3.983275e-01f, -7.030104e-02f, -1.603582e-01f, +1.602064e-02f, -3.073013e-01f,
    -2.040670e-02f, -5.071577e-01f, -1.191786e-01f, -1.141845e-01f, +1.021412e-01f, -6.062608e-03f, +8.271570e-02f, +1.017174e-01f,
    +8.274796e-02f, +1.519672e-01f, -3.200794e-01f, +7.064221e-03f, -1.747193e-01f, +2.072838e-01f, -1.255480e-01f, -8.031457e-02f,
    -3.030955e-02f, -1.675742e-02f, +9.379735e-03f, +5.237920e-01f, +2.156172e-01f, -1.090232e-01f, +1.293404e-01f, +5.084757e-02f,
    +2.253434e-02f, +5.171404e-02f, +2.365126e-03f, -1.938662e-01f, -1.744307e-01f, -1.721025e-01f, +4.654864e-02f, +1.203378e-01f,
    -4.562984e-01f, +3.112766e-01f, -1.898517e-01f, -6.537888e-02f, -3.567593e-03f, +8.171070e-02f, +6.193737e-02f, -4.765534e-01f,
    +4.784165e-01f, -1.269246e-01f, -2.576236e-01f, -6.905679e-01f, -5.753353e-01f, +1.056672e-01f, -3.155728e-02f, -3.850513e-01f,
    -9.916645e-02f, +9.761281e-02f, -1.938712e-01f, -8.390857e-02f, +1.580525e-01f, -3.158102e-01f, +3.323950e-01f, -1.424288e-01f,
    -1.799088e-01f, +2.009306e-01f, -1.592004e-02f, -3.381606e-01f, +1.285383e-01f, +2.069482e-01f, -4.537005e-02f, +1.207308e-01f,
    -6.681266e-02f, +1.765244e-01f, -5.577888e-01f, -4.300030e-01f, -4.524129e-01f, +1.702655e-01f, -6.343845e-02f, -4.169480e-02f,
    -3.073665e-01f, +8.248760e-02f, +5.498915e-01f, -8.043800e-03f, +4.317175e-01f, -1.183722e-01f, -8.967468e-01f, +2.206375e-01f,
    +9.192597e-02f, -1.686187e-02f, -1.989588e-02f, +4.807975e-01f, +7.860986e-02f, -1.111534e-01f, -7.491080e-02f, -4.828515e-02f,
    -1.349229e-01f, +5.154033e-01f, -1.911240e-01f, -3.058959e-02f, +9.026480e-02f, +5.431097e-02f, -1.455633e-01f, -3.496306e-02f,
    +5.850631e-02f, +2.392841e-01f, -1.174938e-02f, -2.550223e-01f, +2.080089e-01f, -5.923033e-02f, +1.548805e-01f, +8.698995e-02f,
    +4.133768e-02f, +1.896518e-01f, +9.223356e-02f, +7.791640e-02f, -4.575683e-01f, +6.690109e-02f, -3.732353e-02f, -2.222033e-03f,
    +6.521747e-02f, -2.520775e-01f, -2.086282e-02f, -1.780699e-01f, -2.825684e-01f, +1.003040e-01f, +2.017922e-04f, +1.234242e-01f,
    -3.375938e-01f, -2.106417e-01f, +9.606667e-02f, -2.211265e-01f, +2.148170e-01f, +4.870650e-02f, -1.251045e-01f, -2.525614e-01f,
    -2.568336e-01f, -2.215954e-01f, +2.377425e-01f, -3.284642e-01f, +6.782898e-02f, +4.409596e-01f, +1.117370e-01f, -2.354962e-01f,
    -1.093493e-01f, +6.281756e-01f, -9.770568e-02f, -1.262442e-01f, -2.677385e-01f, +1.004171e-01f, -2.801841e-02f, -4.032719e-01f,
    -1.240472e-01f, +4.508464e-04f, +4.485960e-02f, -6.045234e-01f, -1.964071e-01f, -1.856958e-01f, +5.477126e-02f, -2.132520e-01f,
    +1.129682e-01f, -3.127806e-01f, +2.295770e-01f, +1.624061e-01f, +2.313247e-01f, -3.320186e-01f, +1.668326e-01f, +3.479236e-01f,
    +3.354549e-02f, +2.172215e-01f, -3.161295e-01f, +2.759925e-01f, -1.235910e-01f, -2.276972e-01f, +3.125715e-02f, -3.910017e-02f,
    +5.499482e-01f, -1.535992e-01f, -1.046926e-01f, +7.969142e-02f, +3.828485e-02f, -8.383222e-02f, +4.193304e-01f, -1.823171e-01f,
    -2.008883e-02f, +4.572194e-02f, +1.157181e-01f, -8.475368e-02f, +6.906031e-02f, -1.868107e-02f, -3.346924e-01f, -5.771537e-03f,
    +2.327925e-01f, -1.450518e-01f, +2.293915e-01f, +1.688682e-01f, +1.040077e-01f, -5.840734e-02f, +3.954715e-03f, -5.296014e-03f,
    +3.020554e-02f, -6.075486e-02f, -2.432878e-01f, +3.421123e-01f, +1.287411e-01f, +8.021457e-02f, +7.313552e-02f, +5.224204e-02f,
    -1.872227e-01f, +1.756154e-01f, -3.525319e-01f, +1.624927e-01f, -3.081330e-01f, -9.374684e-02f, -4.590424e-02f, -5.006273e-01f,
    -1.095963e-01f, -1.568183e-01f, -2.022265e-01f, -7.115398e-02f, -2.045634e-01f, -1.697126e-01f, -8.537202e-02f, +1.140208e-01f,
    -2.786045e-02f, -2.568958e-01f, -9.555766e-02f, +1.344319e-01f, -3.917719e-02f, -3.048834e-01f, +2.035373e-01f, -1.823941e-01f,
    +9.768391e-02f, -4.319205e-02f, -1.540826e-01f, +2.898358e-01f, -1.062324e-01f, -3.857849e-02f, -1.357424e-02f, -4.022860e-01f,
    +4.997743e-01f, -1.365460e-02f, -3.121338e-01f, -2.501341e-01f, -5.167888e-02f, -8.892567e-02f, -3.316062e-01f, -1.554133e-01f,
    -3.543485e-01f, -4.565136e-02f, +7.329066e-02f, -1.162663e-01f, +1.387568e-01f, +8.012322e-02f, +1.512110e-02f, +7.210513e-04f,
    -9.483880e-02f, +4.336214e-02f, +5.450417e-02f, -2.138508e-01f, +1.281881e-01f, -4.708977e-02f, -3.170383e-02f, -4.160995e-01f,
    +9.628803e-02f, -1.677235e-01f, -1.084076e-01f, +1.755179e-02f, -4.783346e-01f, +1.626670e-01f, +8.520789e-02f, -1.846270e-01f,
    +1.995836e-01f, -4.158230e-01f, -1.431615e-01f, -1.962056e-01f, -1.189240e-01f, -1.107189e-02f, -1.160722e-01f, -1.239610e-01f,
    -1.681552e-01f, -3.540507e-02f, -3.526527e-01f, -5.581784e-02f, +1.204721e-01f, -1.350550e-02f, +1.414655e-01f, +1.765742e-01f,
    +8.016579e-02f, +2.223572e-01f, +7.785861e-02f, +1.688041e-01f, -2.189438e-01f, -3.104892e-02f, +8.262510e-02f, +1.269113e-01f,
    +9.576398e-02f, +2.671562e-02f, -3.679465e-02f, -1.240272e-01f, +6.816036e-02f, +1.119549e-01f, +1.949272e-01f, -2.665810e-01f,
    +5.263969e-02f, -2.815953e-01f, -5.873241e-02f, -2.083279e-01f, -2.056804e-01f, +1.159357e-01f, -2.873977e-01f, +1.301293e-01f,
    +1.090747e-01f, -1.591312e-01f, +1.170091e-01f, +8.037991e-02f, -3.365298e-02f, +5.435783e-01f, +2.707420e-02f, +2.064025e-01f,
    -5.296160e-02f, -1.743809e-01f, +2.236341e-02f, -1.150953e-01f, +3.175665e-02f, +2.812302e-02f, -1.005981e-01f, +1.129743e-01f,
    -9.903204e-02f, +1.215246e-02f, +2.254878e-01f, -8.044679e-02f, +1.885980e-01f, +1.553344e-01f, +3.485469e-02f, -8.820271e-02f,
    +6.190332e-02f, -1.430705e-01f, -1.527332e-01f, -2.123441e-01f, +3.268036e-01f, +1.928728e-01f, +5.885932e-02f, +8.916934e-02f,
    +1.021913e-01f, +9.297177e-02f, +5.270610e-01f, +4.917287e-01f, +4.076912e-01f, -7.310118e-02f, +1.560086e-01f, -1.809107e-01f,
    -5.964947e-02f, +4.200434e-02f, +9.928276e-03f, +1.119239e-01f, +1.954650e-01f, +1.516680e-01f, +1.383270e-01f, +3.629993e-01f,
    -1.224026e-01f, +3.165022e-01f, +1.156101e-01f, +6.202798e-02f, +6.233760e-02f, -3.189089e-01f, +1.368906e-01f, +2.644923e-01f,
    -3.397534e-02f, -4.309483e-01f, +2.005352e-01f, +2.525507e-01f, +4.688141e-02f, +2.024453e-01f, +5.648028e-02f, -1.457219e-01f,
    +9.240034e-02f, -1.886454e-01f, -1.900927e-01f, +1.741384e-01f, +3.471038e-01f, -1.556275e-01f, +3.398774e-01f, +7.042662e-02f,
    +5.943398e-03f, +1.803636e-01f, -2.379111e-02f, +2.019011e-02f, -1.498028e-01f, -5.915417e-02f, +1.691289e-01f, -2.319355e-01f,
    +3.092803e-02f, +8.427139e-02f, +3.467269e-02f, -2.947622e-02f, -1.308611e-01f, +1.711745e-01f, -2.613091e-01f, +7.845359e-02f,
    +1.033439e-01f, -1.192546e-01f, +4.057255e-01f, -1.862323e-01f, +1.301076e-01f, -2.078682e-01f, -6.130134e-02f, +2.847240e-01f,
    +8.909639e-02f, +2.140631e-01f, +1.953134e-01f, -2.346278e-01f, -3.173299e-02f, +2.692459e-01f, -9.012530e-02f, -2.214620e-01f,
    +3.489979e-02f, +7.965280e-02f, +8.016665e-02f, -1.078382e-01f, +1.102558e-01f, +4.275039e-01f, -6.626542e-01f, +1.711141e-01f,
    -4.831090e-02f, -8.783253e-02f, +2.998435e-01f, +1.440993e-03f, +5.223157e-01f, -2.262160e-01f, -3.998817e-02f, +1.551447e-01f,
    -2.799580e-02f, +2.484147e-01f, +3.425983e-02f, +1.274169e-01f, +2.551013e-01f, -8.428806e-03f, +3.719453e-02f, +2.552563e-01f,
    -6.748429e-02f, +8.431385e-02f, +6.727414e-03f, +4.623178e-03f, -4.601762e-02f, -3.526761e-02f, +2.363303e-02f, -1.081173e-01f,
    +7.780915e-03f, +1.041384e-01f, -2.639851e-02f, +4.433846e-02f, +3.816765e-02f, -2.398277e-01f, +7.365347e-02f, +1.147149e-01f,
    +2.895377e-02f, +4.004810e-01f, -2.953537e-01f, -3.333280e-01f, +1.884459e-01f, -2.389088e-01f, +1.360327e-01f, +2.638568e-01f,
    -1.791573e-01f, -3.042591e-02f, -1.957167e-01f, +2.918251e-01f, -5.967957e-02f, -2.089020e-01f, +2.742966e-01f, +8.630937e-02f,
    -3.567295e-01f, -7.383911e-02f, -3.693038e-01f, -4.540869e-02f, -2.167688e-01f, +1.951373e-01f, +5.024270e-02f, +2.103699e-01f,
    +5.572063e-02f, +2.399484e-01f, -4.884782e-03f, -6.469050e-02f, +1.353738e-01f, -1.551564e-01f, -4.292113e-02f, -3.810365e-02f,
    +1.487985e-01f, -9.309374e-02f, -2.681303e-01f, -2.843803e-01f, -1.428462e-01f, -6.531924e-02f, +1.201687e-01f, -1.721882e-02f,
    -1.273575e-01f, -2.964797e-01f, +1.223280e-01f, +7.204436e-02f, +2.845360e-01f, +1.773196e-01f, +8.379219e-02f, -9.491849e-03f,
    +4.555651e-01f, -7.519152e-02f, +1.496736e-01f, +4.466769e-02f, +1.904647e-01f, +1.675884e-01f, +8.386288e-02f, +7.843140e-02f,
    +1.406754e-02f, +1.400223e-01f, -1.421788e-01f, -1.483129e-01f, -2.472967e-01f, +1.625255e-02f, -1.812436e-01f, +1.820525e-02f,
    -2.393789e-01f, -3.142554e-01f, +3.231413e-01f, +9.616736e-02f, -8.511940e-02f, +2.653863e-01f, -9.506325e-02f, -1.288228e-01f,
    +9.554544e-02f, +1.286914e-03f, -8.667955e-02f, +7.856080e-02f, +8.563903e-02f, +3.221953e-02f, -1.469480e-01f, -1.325119e-01f,
    +3.931691e-02f, +1.797029e-01f, +9.112208e-02f, -1.379996e-02f, +4.641080e-02f, +1.053914e-01f, -1.524102e-02f, -9.823330e-02f,
    -1.781075e-01f, -7.566605e-02f, +3.028731e-01f, +1.688841e-02f, -1.380660e-02f, +2.968908e-01f, +1.091413e-01f, -1.907284e-02f,
    -6.612569e-02f, +1.496266e-01f, +1.109741e-01f, +4.092422e-01f, +1.953146e-01f, +4.191684e-02f, +2.390306e-01f, +1.601352e-01f,
    -2.037543e-02f, -2.968124e-02f, -3.983222e-02f, +1.554008e-01f, +1.650978e-01f, +8.000106e-02f, +2.044743e-02f, -5.110733e-02f,
    +9.704530e-02f, +8.780961e-03f, -1.319845e-01f, -1.210865e-01f, +5.348814e-02f, -3.940478e-02f, +4.289949e-02f, +1.294138e-02f,
    +5.846971e-02f, -6.317885e-02f, -1.281306e-01f, -3.326473e-02f, +6.020904e-02f, +8.755009e-02f, +4.401534e-02f, +1.255608e-02f,
    +1.156699e-01f, +1.714993e-02f, +1.854845e-02f, -1.156274e-01f, -2.482464e-02f, +4.552968e-02f, -2.760449e-02f, -2.093965e-03f,
    -1.820660e-02f, -8.350317e-02f, +6.773038e-02f, -4.498951e-03f, +2.941537e-02f, -5.457443e-03f, -6.083035e-02f, -9.866118e-02f,
    -5.393584e-02f, +2.375830e-02f, -4.284241e-02f, -2.584605e-02f, -5.019855e-02f, +7.868598e-02f, -1.188608e-01f, +6.342467e-03f,
    -1.355200e-01f, -8.328876e-02f, +6.415199e-02f, +4.407854e-02f, -1.206637e-01f, -1.055046e-01f, -7.725526e-02f, -8.131130e-02f,
    -4.860802e-02f, -4.470438e-03f, +3.989483e-02f, +3.238545e-02f, +1.038249e-01f, -1.258099e-01f, -1.091609e-01f, -1.053479e-01f,
    +9.229556e-02f, -1.521426e-02f, -3.836302e-02f, -1.194048e-01f, +5.283104e-02f, -2.455230e-02f, -1.222029e-01f, -4.876310e-02f,
    +4.219036e-02f, +4.791538e-02f, +3.446569e-01f, -1.895586e-02f, +3.270390e-01f, -1.568917e-01f, -2.573731e-02f, +6.107005e-02f,
    -2.454688e-01f, +1.471846e-01f, -3.921539e-01f, -8.477481e-02f, -2.926109e-01f, -6.076961e-02f, -7.472812e-02f, -2.964169e-02f,
    -2.778904e-01f, +3.065577e-02f, +2.448278e-01f, -2.155613e-01f, -3.624712e-01f, -2.259033e-01f, +8.892456e-02f, -5.603251e-01f,
    +1.141961e-01f, +2.251167e-01f, +1.627898e-03f, -8.140311e-02f, +2.319461e-01f, +2.535365e-01f, +1.519701e-01f, +8.342750e-02f,
    -1.843036e-01f, +4.209393e-01f, -1.138576e-01f, +3.637132e-02f, +5.945517e-02f, +2.533847e-01f, -7.337055e-02f, +2.200845e-01f,
    +2.112235e-01f, -1.593534e-01f, +2.529145e-01f, +3.451727e-02f, +5.103141e-02f, +1.757086e-01f, -7.264860e-02f, +4.136041e-02f,
    +2.003938e-01f, -4.754716e-01f, +3.441510e-02f, +3.185696e-01f, +3.324697e-01f, +6.791907e-02f, +1.532680e-02f, -2.233894e-01f,
    -2.935571e-01f, +9.422935e-02f, -3.693388e-01f, +9.864646e-02f, +7.747933e-02f, -1.003584e-01f, -3.654720e-01f, +3.066287e-01f,
    -1.204716e-01f, +1.774586e-01f, -3.889217e-01f, +6.965999e-03f, +8.292554e-02f, -1.442824e-01f, -3.504670e-01f, -1.892518e-01f,
    -7.768818e-03f, -3.699341e-01f, +9.916612e-02f, +1.485942e-02f, +2.259315e-02f, +1.571801e-01f, +2.822437e-01f, +1.584256e-01f,
    -1.111821e-01f, +2.001777e-01f, -3.455556e-02f, -1.271076e-02f, +2.546816e-01f, -1.139957e-01f, -1.975698e-01f, +2.127939e-01f,
    -2.042314e-01f, +3.982880e-03f, +1.183612e-01f, +3.918120e-02f, +5.039850e-01f, -3.950607e-03f, -3.383105e-01f, +1.401384e-01f,
    +1.808891e-01f, -1.644112e-01f, +6.676685e-02f, +4.763940e-01f, +3.543586e-01f, -4.107832e-01f, -7.936199e-02f, -3.103591e-01f,
    -5.754803e-02f, +3.057694e-02f, -3.455520e-01f, -4.436104e-02f, -1.790346e-02f, -4.507010e-01f, -1.194972e-01f, +2.263542e-01f,
    -2.181953e-01f, -2.599260e-01f, -2.151642e-01f, -3.718716e-01f, +2.412979e-02f, -1.875816e-01f, -1.199350e-01f, +1.203070e-01f,
    +2.945131e-01f, -2.019633e-02f, +3.632832e-01f, +1.897596e-01f, -1.239016e-01f, +3.156184e-01f, -2.102337e-01f, -1.309930e-01f,
    +1.686930e-02f, -1.799672e-01f, -8.110941e-02f, +3.280158e-01f, +2.602189e-01f, +1.572751e-01f, +2.837140e-01f, +7.594164e-02f,
    +7.200401e-02f, +2.573009e-01f, +1.885128e-01f, +8.342120e-02f, -4.822373e-02f, -2.284283e-01f, +8.590934e-03f, -2.840917e-01f,
    -4.446879e-02f, -9.509505e-04f, +1.203395e-01f, -5.089796e-02f, -6.198243e-02f, +7.559880e-02f, -3.498309e-01f, +1.005731e-03f,
    +2.246707e-02f, -2.262097e-01f, +2.404217e-01f, -2.017724e-01f, +2.759999e-02f, -2.176182e-01f, -1.869680e-02f, +9.784867e-02f,
    +1.540058e-01f, +3.337746e-02f, +2.087601e-01f, -2.220396e-01f, -1.017244e-01f, +2.039968e-01f, -4.451628e-02f, -2.807270e-01f,
    -4.832668e-02f, +1.806737e-01f, -2.095580e-02f, -1.098742e-01f, -3.077999e-03f, +3.624339e-01f, -4.764153e-01f, +3.535902e-03f,
    +3.713154e-02f, +8.829495e-02f, +2.878268e-01f, +4.073068e-01f, +2.567349e-01f, -1.428791e-01f, -2.438109e-01f, +6.041421e-02f,
    -5.254658e-02f, +4.029293e-02f, -1.724652e-01f, +2.711650e-01f, +1.979267e-01f, -1.747407e-01f, +7.493468e-02f, +1.680478e-01f,
    -4.602810e-02f, +1.893338e-01f, +2.225480e-01f, +5.206345e-02f, +3.788834e-02f, +1.319204e-01f, -1.474083e-01f, +1.577898e-01f,
    +5.650543e-02f, +6.339758e-02f, +1.426324e-01f, -8.276592e-04f, +1.288145e-01f, -3.205288e-02f, +2.114724e-01f, -2.723106e-01f,
    +9.123681e-02f, +1.396566e-01f, -1.631690e-01f, +1.083788e-01f, +2.636957e-01f, +2.531137e-02f, +1.458622e-01f, +1.865919e-01f,
    -4.218738e-03f, +1.527390e-01f, -3.179682e-01f, +2.107853e-01f, +7.184266e-02f, +1.251020e-01f, -3.858813e-02f, +4.255440e-01f,
    +4.887990e-02f, -4.476778e-01f, -8.575225e-03f, +3.466606e-01f, -2.107524e-01f, -9.045268e-02f, +4.954487e-03f, +9.384900e-02f,
    +9.452152e-02f, +1.012235e-01f, -6.381818e-03f, -1.172999e-01f, -1.611600e-01f, -1.016731e-01f, +2.168304e-01f, +2.373774e-01f,
    -2.799168e-02f, +1.617085e-01f, -8.496495e-02f, -3.334997e-01f, +2.773160e-03f, +2.160466e-01f, -7.359882e-02f, -5.456648e-02f,
    +1.744203e-01f, +7.056180e-02f, +5.466847e-02f, -1.168656e-01f, -2.798120e-01f, +9.549656e-02f, -5.317463e-02f, +3.058151e-02f,
    -2.371143e-02f, -1.431716e-01f, +3.008194e-01f, -1.700505e-01f, +8.467254e-02f, +2.653557e-02f, -9.318987e-02f, -1.084761e-01f,
    +1.732538e-01f, -2.194028e-02f, +2.252966e-01f, -2.083816e-02f, +7.772326e-02f, -3.569323e-01f, +1.798605e-02f, +7.694440e-02f,
    -2.214199e-02f, +2.128190e-01f, -1.985705e-01f, +2.087599e-01f, +4.674075e-02f, +1.352843e-01f, +1.540194e-01f, +1.915603e-02f,
    -1.263482e-01f, +1.444838e-01f, -1.188465e-01f, +1.570418e-01f, -1.884752e-01f, +3.261626e-04f, -3.556496e-01f, -3.096615e-01f,
    -8.730851e-03f, -1.811585e-01f, -2.429509e-02f, +2.114753e-01f, +1.229900e-02f, -9.634656e-02f, +1.357924e-01f, -8.635542e-03f,
    -6.773569e-02f, -2.045486e-01f, -1.380462e-01f, -6.077226e-02f, -2.344162e-01f, -3.126890e-01f, +2.179472e-01f, +3.186471e-02f,
    -3.122616e-02f, +9.903060e-03f, +1.257293e-01f, +1.592861e-02f, +1.023926e-01f, +2.180181e-01f, +1.262875e-01f, -2.992986e-01f,
    +3.002543e-01f, +7.544440e-02f, -2.634796e-01f, -5.671244e-01f, -3.360273e-01f, +7.484616e-02f, -2.527255e-01f, +9.649478e-04f,
    -3.955381e-01f, +3.236054e-01f, -1.211446e-02f, +1.012731e-01f, -6.470390e-03f, +1.210018e-02f, +1.225388e-01f, -1.079154e-01f,
    -2.739294e-02f, +2.008724e-01f, -3.418678e-01f, +1.915123e-01f, +6.925441e-01f, -6.559077e-02f, +5.729467e-02f, +1.931370e-01f,
    +6.627996e-02f, +2.413582e-01f, -3.358926e-01f, +1.565839e-01f, +1.378731e-01f, -4.934216e-01f, +3.414647e-02f, +9.343996e-03f,
    -3.714485e-02f, +1.036025e-01f, +3.267120e-01f, +2.160354e-01f, -1.783343e-01f, +1.342952e-02f, +1.169937e-01f, -1.298995e-01f,
    +1.886244e-01f, +1.625862e-01f, -1.796811e-01f, +3.471046e-01f, +1.123152e-01f, +2.380087e-01f, +1.277695e-01f, +3.271325e-02f,
    -4.398300e-02f, +3.435071e-01f, -2.932340e-01f, +2.588038e-02f, +2.273492e-01f, -1.097845e-01f, +7.052095e-02f, +2.107902e-01f,
    +1.414385e-01f, -2.498333e-01f, +1.266143e-01f, -3.115142e-01f, +2.560651e-02f, +3.232047e-02f, -1.309998e-01f, -1.399260e-01f,
    -3.104505e-01f, -6.225748e-03f, -4.428288e-01f, +2.342276e-01f, +6.750622e-02f, -2.911316e-01f, -1.332740e-01f, +3.333744e-02f,
    -9.807556e-02f, -1.471428e-02f, -7.244986e-02f, -1.492377e-01f, +2.025624e-01f, +2.609730e-02f, -6.023614e-01f, -1.520871e-01f,
    +1.518098e-01f, -2.109190e-01f, +4.175054e-01f, +1.808025e-01f, +1.915487e-01f, +8.772986e-02f, +7.692227e-02f, -7.169290e-01f,
    -2.708784e-01f, -2.664388e-01f, -4.226140e-03f, -3.440606e-01f, +1.091871e-01f, -1.456621e-01f, +1.493017e-01f, +1.537941e-01f,
    -1.617959e-01f, +1.759256e-01f, -3.502108e-01f, +6.108874e-02f, -1.450989e-01f, -2.683529e-02f, +2.141893e-01f, -4.573036e-02f,
    -3.132189e-01f, -1.890197e-01f, -2.958312e-02f, +4.212698e-01f, -2.876430e-01f, +3.540555e-03f, -1.584628e-01f, +1.490192e-01f,
    +1.099901e-01f, +6.936385e-02f, -2.604378e-01f, +9.847973e-02f, -8.310433e-02f, -7.403016e-02f, +2.052231e-01f, +2.058794e-01f,
    -7.865436e-02f, -1.074387e-03f, -4.167255e-01f, +1.707441e-01f, -1.972426e-01f, -3.026813e-02f, -2.293661e-01f, +3.542590e-01f,
    +4.966180e-01f, -4.796487e-02f, +4.436091e-02f, -2.253007e-01f, +1.790259e-02f, -6.675221e-02f, +2.718547e-01f, -2.525074e-01f,
    -1.967621e-02f, -2.666858e-02f, -9.114447e-02f, +7.465388e-02f, -8.398770e-02f, +6.805082e-02f, -9.717464e-02f, -4.185700e-02f,
    -3.756738e-02f, +5.491841e-02f, +7.633690e-02f, -2.237844e-02f, -1.144151e-01f, -6.624144e-02f, -6.927803e-02f, -5.125749e-02f,
    -1.264296e-02f, +7.814381e-02f, -3.691179e-02f, +7.915531e-02f, -3.566572e-02f, +6.988754e-02f, -6.492601e-02f, -4.450141e-02f,
    -3.775321e-02f, -1.116568e-01f, +2.243933e-02f, -1.230560e-01f, +3.818930e-02f, +3.327143e-02f, -9.112608e-02f, +2.938036e-02f,
    -7.060792e-02f, +2.447045e-02f, -1.383099e-01f, -3.599128e-02f, -6.299052e-02f, -1.501769e-01f, +3.152341e-04f, +9.365252e-02f,
    +2.664498e-04f, -5.504821e-02f, -2.011662e-02f, -9.767602e-02f, -1.070089e-02f, +3.356145e-02f, -1.256478e-02f, +7.651403e-02f,
    +2.841770e-02f, +1.846102e-02f, +1.010850e-01f, -5.505115e-02f, +8.099916e-02f, +3.242262e-02f, -5.320032e-02f, +1.169381e-01f,
    -5.593309e-02f, +8.050415e-02f, +3.585161e-02f, -9.041467e-02f, -8.080341e-02f, -5.535861e-02f, +8.977354e-03f, -3.418197e-02f,
    -4.272554e-01f, -3.409480e-01f, -1.711482e-02f, -2.042101e-01f, +4.212241e-02f, +1.198411e-01f, -2.463577e-01f, +1.231355e-02f,
    +3.977467e-02f, +9.729240e-02f, +1.508187e+00f, -1.805294e-01f, -5.858604e-03f, +3.911481e-02f, -3.532144e-01f, -1.602374e+00f,
    +9.006121e-02f, -1.986892e-01f, -1.593348e-01f, -1.251883e-01f, +1.393099e-01f, -2.060012e-02f, +3.850960e-02f, -3.044301e-01f,
    -1.468223e-01f, +1.314978e-01f, -3.171036e-01f, -3.872778e-01f, -2.043155e-01f, +3.456237e-02f, -3.601059e-02f, +5.640471e-02f,
    -2.575148e-01f, -2.795346e-01f, -2.499000e-01f, -2.679874e-01f, -4.065685e-01f, +4.090898e-02f, +1.228842e-01f, +7.979210e-02f,
    -8.605270e-02f, -1.190500e-01f, -2.924245e-02f, +4.459129e-01f, -3.681270e-01f, -1.072943e-01f, +1.916649e-01f, -1.558373e-01f,
    +2.409964e-02f, -6.159559e-02f, -2.791116e-02f, -1.193140e-01f, -1.627359e-01f, +1.956576e-01f, -4.341678e-02f, -2.510466e-01f,
    +4.293276e-01f, -6.359144e-01f, -1.522499e-01f, -2.724850e-02f, -2.246750e-01f, -1.512608e-02f, -1.009947e-01f, +8.695346e-02f,
    +5.836613e-03f, +2.297368e-02f, -3.247483e-01f, +2.051942e-01f, +5.428011e-02f, +2.153946e-01f, +2.728732e-01f, -1.768124e-01f,
    -2.213899e-01f, -1.584003e-01f, +1.053561e-01f, -1.121778e-02f, +1.288316e-01f, -7.750896e-02f, +4.904594e-03f, +2.611683e-01f,
    -6.908241e-02f, +5.498837e-03f, +3.370368e-02f, -1.605522e-02f, -1.051050e-01f, +5.999327e-02f, -2.811444e-01f, -3.451207e-02f,
    -6.340915e-02f, -1.445260e-01f, +3.050352e-01f, -3.243361e-01f, +6.741123e-02f, +8.526081e-02f, +3.188032e-02f, +2.515097e-02f,
    -8.500970e-03f, -7.488367e-02f, +1.977195e-01f, -4.930901e-01f, -4.495263e-01f, +4.077583e-02f, -2.108081e-01f, -3.106680e-01f,
    +1.822002e-01f, +7.868374e-03f, +1.528126e-01f, -8.627395e-02f, +4.582730e-02f, +3.401797e-01f, -9.249099e-02f, -4.259758e-02f,
    +1.310405e-01f, -1.248140e-01f, +1.879408e-01f, +1.528526e-01f, +7.873864e-02f, -1.852069e-01f, -1.831521e-01f, -1.149959e-01f,
    -1.038930e-01f, +9.399460e-02f, -1.099417e-01f, +2.340500e-01f, -2.712442e-02f, +1.625861e-02f, +5.631048e-02f, +1.112773e-01f,
    -1.511642e-01f, +1.377362e-01f, -6.494613e-02f, -4.039326e-02f, +6.722011e-02f, -1.832254e-01f, +1.226924e-01f, +5.516630e-02f,
    -1.224291e-01f, -2.294852e-03f, -6.312630e-02f, +2.342337e-01f, +4.189320e-02f, +7.592154e-02f, -1.647781e-01f, -1.138748e-01f,
    +1.197738e-01f, +2.564752e-02f, -7.160199e-03f, -7.208600e-03f, -2.319598e-01f, -1.147616e-01f, +6.424753e-02f, -5.454530e-02f,
    +1.410097e-01f, +3.128132e-01f, +1.995238e-01f, +7.402264e-02f, -1.647916e-01f, -1.209970e-01f, +2.098996e-02f, -1.931638e-03f,
    -3.487782e-02f, +3.194874e-01f, -2.429849e-01f, -3.038771e-01f, +8.993822e-03f, +7.562413e-02f, +4.937486e-02f, -5.625398e-02f,
    +5.171989e-01f, +1.412206e-01f, +1.019524e-01f, +2.564872e-01f, -4.088645e-02f, +9.361317e-02f, -2.402750e-01f, -1.787603e-01f,
    +2.367822e-01f, -1.309905e-01f, -7.136223e-02f, -1.970758e-01f, +2.761284e-01f, +9.722301e-02f, -3.270254e-01f, +4.300610e-02f,
    -6.955443e-02f, +1.256887e-01f, +8.559102e-02f, -1.763927e-01f, +1.401396e-01f, -1.151108e-01f, +3.668102e-01f, +4.139317e-01f,
    +4.947596e-02f, -1.952536e-01f, -1.808056e-01f, +1.567192e-01f, +1.833564e-01f, -1.756952e-01f, +2.425918e-01f, +1.446895e-02f,
    +4.849848e-02f, +6.513509e-02f, +1.260358e-01f, +6.462047e-02f, -2.445610e-01f, -5.195253e-02f, +1.505477e-01f, -4.839194e-01f,
    -1.450505e-01f, +1.091213e-02f, +7.060837e-02f, -6.848430e-02f, -8.952957e-02f, +2.105540e-01f, -4.062661e-02f, -3.782969e-01f,
    +1.256792e-01f, -2.296115e-02f, +1.310604e-01f, -3.712621e-01f, +1.525879e-01f, +4.166208e-02f, +8.334032e-02f, +1.899091e-01f,
    -1.564357e-02f, +1.794685e-01f, +1.083830e-01f, -5.256118e-01f, -1.216283e-01f, +1.857342e-01f, -7.994106e-02f, -1.438701e-01f,
    -1.460370e-01f, +2.663018e-01f, +9.367584e-02f, -3.177915e-01f, +1.955870e-01f, +2.410002e-01f, -4.666916e-01f, +2.066170e-01f,
    +1.046175e-01f, -1.859390e-02f, +1.503493e-01f, +7.654423e-02f, +4.716873e-01f, -1.608873e-01f, +9.573012e-02f, +5.754476e-02f,
    -1.254963e-01f, +2.235902e-01f, +1.273368e-01f, +2.298295e-01f, +3.251581e-01f, +4.823599e-02f, -8.398157e-02f, +1.708521e-01f,
    -5.821558e-02f, +1.432434e-01f, -3.465803e-01f, -2.062722e-01f, +2.038755e-01f, +2.329227e-02f, -3.389325e-02f, -1.646307e-01f,
    -6.144144e-02f, +1.497352e-01f, -4.262040e-02f, +1.193460e-01f, -8.167768e-02f, +1.513740e-01f, -4.563565e-01f, -8.214165e-02f,
    +6.339905e-04f, +3.665013e-02f, +1.338582e-01f, -3.764340e-02f, +2.336443e-01f, -1.010472e-01f, -9.410547e-02f, -5.254853e-02f,
    -9.962343e-02f, +4.172202e-01f, -9.027644e-02f, +9.480095e-02f, +2.677435e-02f, +1.798686e-01f, -2.202381e-02f, +9.410407e-02f,
    -3.905981e-01f, +9.172914e-02f, +9.452756e-02f, +1.466861e-01f, -1.873671e-01f, -6.662067e-02f, -1.959254e-01f, -3.146916e-02f,
    +4.439936e-01f, -2.999703e-01f, +1.810869e-02f, +3.706957e-01f, -2.464046e-01f, -1.445121e-01f, +6.547201e-02f, -2.901224e-01f,
    -1.540959e-02f, -1.126174e-01f, -2.860872e-02f, +6.435381e-02f, -4.934530e-02f, -5.284186e-02f, -3.043291e-02f, +3.620174e-01f,
    -1.022442e-02f, -1.236008e-01f, +2.183454e-01f, -9.575026e-04f, +1.643988e-01f, +5.897254e-02f, +3.303644e-01f, -2.900781e-02f,
    -9.743968e-02f, -9.520819e-02f, +3.760369e-02f, +5.662553e-02f, +6.298214e-02f, -2.498966e-02f, -1.412546e-02f, +4.678583e-02f,
    +9.532995e-02f, -8.025277e-02f, +4.159137e-02f, +8.900725e-02f, +6.995355e-02f, -3.161684e-02f, -7.022481e-02f, +1.396244e-02f,
    -8.707157e-02f, +2.689766e-02f, -1.069693e-01f, -7.032188e-03f, +5.906630e-02f, +6.013867e-02f, -7.638534e-02f, +6.742261e-02f,
    -1.023602e-01f, -2.943523e-02f, +3.281003e-02f, +8.102832e-03f, +2.499844e-02f, +1.753204e-02f, +5.608306e-02f, +8.187365e-02f,
    +7.258494e-02f, -1.561102e-01f, -6.250529e-02f, +5.797679e-02f, -2.722472e-02f, -7.141913e-02f, -3.494155e-02f, -1.288913e-01f,
    -1.692250e-01f, -9.359916e-02f, -6.620381e-02f, -1.284098e-01f, +2.866342e-02f, -9.652930e-02f, -1.274198e-01f, -1.418283e-01f,
    +4.360415e-02f, -4.983999e-02f, -4.919064e-02f, -4.228229e-02f, -1.047350e-01f, -1.575753e-01f, +1.010339e-01f, -6.290109e-02f,
    -2.647286e-02f, -1.997326e-02f, -1.313116e-01f, -4.615618e-02f, +9.856115e-02f, +2.407332e-02f, +6.509272e-02f, -1.333756e-01f,
    +1.313272e-01f, +9.581493e-02f, -1.059346e-01f, -4.447766e-01f, +3.085840e-01f, -2.440431e-01f, -1.070993e-01f, -6.220044e-01f,
    -3.440158e-01f, +2.125136e-01f, -1.691620e-01f, -2.212507e-02f, -4.752088e-01f, +5.304632e-01f, -1.282681e-01f, +1.935827e-01f,
    -2.084682e-01f, +4.241631e-01f, +1.695567e-01f, -4.326510e-02f, +2.523654e-01f, +6.606425e-01f, +1.023621e-01f, +1.012831e-01f,
    +8.883316e-02f, +1.558156e-01f, -6.023802e-03f, -2.478242e-02f, +3.699949e-01f, +1.831382e-01f, +5.934266e-02f, +3.071175e-01f,
    -1.882774e-01f, +2.353292e-01f, +2.636451e-01f, -1.573790e-02f, +1.967074e-01f, +1.938472e-01f, -5.297983e-01f, +3.623287e-02f,
    +2.610967e-01f, -3.337323e-02f, +2.723654e-01f, +1.543949e-01f, -9.879697e-02f, -1.400591e-01f, +1.389746e-01f, +1.316963e-01f,
    +2.183209e-02f, -5.391510e-01f, +8.381968e-02f, -3.479224e-01f, +3.136401e-01f, +1.894962e-01f, +6.678144e-02f, -1.890329e-01f,
    -3.857209e-01f, -1.014256e-01f, -1.536274e-01f, +1.240199e-02f, -9.027557e-02f, +1.146859e-01f, -2.959467e-01f, -7.789063e-02f,
};

static const float B2[64] = {
    -4.264078e-02f, -1.537718e-01f, +1.907862e-01f, +5.109286e-02f, +3.255332e-02f, +4.856210e-02f, +5.720833e-02f, +4.956095e-02f,
    +6.295080e-02f, -4.711371e-02f, +1.754902e-01f, +4.970984e-02f, +7.942588e-02f, +5.828229e-02f, -9.538130e-04f, +1.084642e-01f,
    +1.065873e-01f, +1.429664e-01f, -3.979025e-02f, +8.173836e-03f, -3.003550e-02f, +1.749091e-02f, +3.916594e-02f, +3.342997e-02f,
    +7.220172e-03f, +1.632931e-02f, -3.183132e-03f, +1.813836e-02f, +1.440133e-01f, -9.300234e-02f, +2.013890e-02f, -1.098785e-01f,
    +6.954138e-02f, +5.140164e-02f, +6.950440e-03f, -5.403575e-02f, +4.164950e-02f, +1.079509e-01f, -8.015940e-02f, +1.000702e-02f,
    -9.686039e-05f, -1.710602e-01f, +5.730535e-02f, +6.335000e-02f, -5.124856e-03f, +1.262009e-01f, +6.026887e-02f, +1.062327e-01f,
    -3.296454e-02f, +8.399133e-02f, -2.135377e-01f, -1.056576e-01f, -8.600191e-02f, +9.975184e-02f, +2.042010e-01f, +7.606038e-02f,
    -1.215291e-01f, -1.763663e-03f, -6.037535e-03f, +6.966653e-02f, -1.756849e-02f, -2.151819e-02f, -1.584589e-01f, +7.513491e-02f,
};

static const float W3[256] = {
    -4.390268e-02f, +5.308328e-02f, +1.512844e-01f, +2.004415e-01f, -1.333110e-01f, +4.427647e-03f, -2.469721e-01f, +2.740582e-01f,
    -1.668793e-01f, -1.161296e-01f, -7.828614e-02f, +1.088926e-01f, +4.243813e-01f, +2.616838e-01f, +3.142268e-01f, -7.270826e-02f,
    -2.341930e-01f, +7.985003e-02f, +2.143539e-01f, +7.066593e-02f, +1.481541e-02f, -5.200946e-02f, -1.612873e-02f, -8.083357e-02f,
    +3.718748e-02f, +2.963296e-01f, -3.802558e-01f, -2.069536e-02f, +1.334929e-01f, +5.157873e-02f, -9.842551e-02f, -1.063755e-02f,
    -3.433238e-02f, -1.561469e-01f, -1.130595e-01f, +5.683468e-01f, -1.471805e-01f, +1.180319e-03f, -1.198486e-02f, -1.806460e-01f,
    +8.492997e-02f, -8.339974e-01f, +5.912397e-02f, +1.235109e-01f, +4.171075e-02f, +1.562159e-01f, -1.525241e-01f, -7.251862e-02f,
    -2.998902e-02f, -7.611467e-02f, +3.170152e-02f, +2.239607e-01f, -2.957953e-01f, -1.645964e-01f, +1.888216e-01f, -2.494396e-02f,
    +1.208652e-02f, -4.758915e-02f, +2.725802e-01f, +3.809871e-02f, +1.235224e-02f, +6.550895e-03f, +3.311820e-02f, -2.768522e-03f,
    -4.334838e-02f, -5.971513e-02f, -3.664094e-01f, +8.148013e-01f, +3.247027e-01f, +3.677926e-01f, +2.410559e-01f, -2.672531e-01f,
    -2.396371e-01f, -6.283358e-02f, -2.969816e-01f, -4.893548e-03f, -5.260702e-01f, -9.179302e-02f, -1.389795e-01f, +2.865318e-01f,
    +5.680736e-01f, -1.968398e-01f, +1.336479e-01f, +4.395157e-01f, -1.148761e-01f, +3.557921e-01f, -2.682349e-01f, +4.351086e-01f,
    -3.959686e-01f, +2.282444e-01f, +1.967671e-02f, -2.855019e-02f, +6.055378e-03f, +4.018855e-02f, -7.571141e-02f, -1.633734e-02f,
    +8.027102e-01f, -3.386266e-01f, +1.511412e-01f, +3.635668e-01f, +1.350308e-01f, -2.650940e-01f, +3.139532e-02f, +4.019337e-01f,
    -4.838582e-01f, +7.772633e-02f, -1.432991e-01f, -3.942392e-02f, +1.525276e-01f, +4.999259e-01f, -3.339438e-01f, +2.740846e-01f,
    +1.072404e-01f, +2.457086e-01f, -4.860244e-01f, +2.793662e-01f, -2.839918e-01f, -3.483078e-01f, -3.860174e-01f, -1.915712e-01f,
    -9.966847e-02f, -2.681974e-01f, +2.380486e-01f, -1.166942e-01f, +2.139591e-01f, -3.619676e-02f, -1.756974e-02f, +4.598676e-02f,
    +1.351644e-01f, +9.072567e-02f, +3.297900e-01f, +1.876256e-02f, -2.338879e-01f, +6.053532e-01f, +1.383222e-01f, +1.686686e-01f,
    +5.824970e-02f, -2.990822e-02f, +4.005085e-02f, +4.125703e-01f, +4.596652e-01f, +8.167276e-01f, +1.678189e-01f, -2.402961e-01f,
    +4.164461e-01f, -8.924068e-01f, +9.284132e-01f, +3.338756e-01f, -7.620066e-02f, +2.916731e-01f, -3.163693e-01f, +2.328216e-01f,
    +7.170357e-02f, -4.362664e-02f, -3.846931e-01f, +2.304137e-02f, +2.214038e-01f, +8.884476e-03f, +1.965827e-01f, -1.209097e-01f,
    -6.572437e-02f, -2.391735e-01f, +4.403068e-01f, -1.134987e-01f, +6.706447e-02f, +2.923161e-01f, +3.157397e-02f, +7.909058e-01f,
    -3.971204e-01f, +2.895104e-01f, +6.398099e-01f, +2.226475e-01f, +5.156571e-01f, -4.770927e-01f, -1.271434e-01f, +5.159401e-03f,
    +1.246513e-01f, -4.293770e-01f, +2.512381e-01f, -2.350466e-01f, +4.016305e-01f, +5.402165e-01f, -7.545999e-02f, +6.800674e-01f,
    -4.156508e-02f, -6.155525e-03f, -2.180199e-01f, -2.852649e-01f, -2.899612e-01f, -5.294191e-01f, -2.420803e-02f, -5.368806e-01f,
    -3.624115e-01f, +1.451773e-01f, -1.960271e-01f, -1.477046e-01f, +1.389087e-01f, -8.378275e-02f, -2.442718e-01f, +8.258607e-02f,
    +7.959731e-02f, -3.496820e-02f, +3.012270e-01f, +6.428648e-02f, -2.779638e-02f, +8.914907e-02f, +1.380467e-01f, -1.988009e-02f,
    +1.694555e-02f, +2.113593e-02f, +8.999744e-02f, +1.170880e-01f, +9.300840e-02f, +2.214168e-01f, +1.637686e-01f, -2.850070e-03f,
    -1.773794e-01f, -2.901425e-01f, +4.522400e-02f, +8.397455e-02f, -1.281810e-01f, -1.429059e-01f, -8.370513e-02f, +5.657971e-03f,
    +3.418411e-02f, -1.178657e-01f, -1.834117e-02f, +1.896522e-01f, +1.628044e-01f, -5.078541e-02f, -4.907161e-03f, +1.167669e-01f,
    +1.502519e-01f, -7.440824e-02f, -2.353671e-01f, +1.509245e-01f, +1.110333e-01f, +3.809259e-02f, +1.725222e-01f, +1.312632e-01f,
    +1.115829e-02f, -1.704246e-01f, +2.610522e-01f, -6.121386e-02f, +1.395688e-01f, +1.460224e-01f, +1.484618e-02f, -9.176144e-03f,
    -1.131820e-01f, -2.795367e-01f, -9.383372e-02f, -3.816057e-01f, +1.248320e-01f, -1.839512e-01f, -6.760125e-03f, +1.599415e-02f,
};

static const float B3[4] = {
    +3.754235e-02f, -7.987971e-02f, -1.002296e-01f, +5.952913e-02f,
};

#endif /* POLICY_WEIGHTS_H */
